{"learner":{"attributes":{"best_iteration":"9","best_score":"0.6085120207927226","scikit_learn":"{\"_estimator_type\": \"classifier\"}"},"feature_names":["created_hour_sin","created_hour_cos","is_weekend","delivery_distance_km","order_volume_last_1h","courier_avg_speed_7d","courier_late_rate_7d"],"feature_types":["float","float","int","float","int","float","float"],"gradient_booster":{"model":{"cats":{"enc":[],"feature_segments":[],"sorted_idx":[]},"gbtree_model_param":{"num_parallel_tree":"1","num_trees":"30"},"iteration_indptr":[0,1,2,3,4,5,6,7,8,9,10,11,12,13,14,15,16,17,18,19,20,21,22,23,24,25,26,27,28,29,30],"tree_info":[0,0,0,0,0,0,0,0,0,0,0,0,0,0,0,0,0,0,0,0,0,0,0,0,0,0,0,0,0,0],"trees":[{"base_weights":[-1.20337456E-8,1.2166563E-1,-6.9203806E-1,-8.461539E-2,1.6570811E-1,3.7323943E-1,-1.0836166E0,6.1295677E-2,6.864384E-1,-6.363636E-2,7.259858E-1,1.8823528E-1,-1.3052465E0,-1.8104064E-1,3.283112E-1,9.1820395E-1,-1.0000001E-1,1.01694904E-1,1.2250923E0,-6.25E-1,6.528925E-2,3.1521738E-2,-1.4072847E0,1.105662E-2,-2.5558222E-2,4.499418E-2,-1.551787E-3,-1.6262976E-2,5.1199403E-2,6.315789E-2,-3.957704E-2,4.084507E-2,-2.688822E-2,7.079646E-3,7.9E-2,-6.666667E-2,3.1521738E-2,-7.546174E-2,7.079646E-3],"categories":[],"categories_nodes":[],"categories_segments":[],"categories_sizes":[],"default_left":[0,0,0,0,0,0,0,0,0,0,0,0,0,0,0,0,0,0,0,0,0,0,0,0,0,0,0,0,0,0,0,0,0,0,0,0,0,0,0],"id":0,"left_children":[1,3,5,-1,7,9,11,13,15,-1,17,19,21,23,25,27,29,31,33,35,-1,-1,37,-1,-1,-1,-1,-1,-1,-1,-1,-1,-1,-1,-1,-1,-1,-1,-1],"loss_changes":[2.6774727E1,2.188738E1,2.0238451E1,0E0,1.4363576E1,8.776026E0,1.0118217E1,1.4411421E1,8.139879E0,0E0,3.5439868E0,6.3340178E0,6.8032074E0,1.5635696E1,2.1775112E1,4.831993E0,1.1324424E1,3.3303769E0,2.2574968E0,4.567029E0,0E0,0E0,4.7554398E0,0E0,0E0,0E0,0E0,0E0,0E0,0E0,0E0,0E0,0E0,0E0,0E0,0E0,0E0,0E0,0E0],"parents":[2147483647,0,0,1,1,2,2,4,4,5,5,6,6,7,7,8,8,10,10,11,11,12,12,13,13,14,14,15,15,16,16,17,17,18,18,19,19,22,22],"right_children":[2,4,6,-1,8,10,12,14,16,-1,18,20,22,24,26,28,30,32,34,36,-1,-1,38,-1,-1,-1,-1,-1,-1,-1,-1,-1,-1,-1,-1,-1,-1,-1,-1],"split_conditions":[8.3451927E-1,2.541582E-2,2.9320728E1,-8.461539E-2,7.4157214E-1,8.6812323E-1,6.63095E-2,4.3611687E1,1.4560411E1,-6.363636E-2,2.4594978E1,5.4330572E-2,1.0944979E0,8.120775E0,1.5227044E-1,2.5469017E0,2.8694838E1,9.8049685E-2,2.54E2,1.7358067E1,6.528925E-2,3.1521738E-2,9.736903E-1,1.105662E-2,-2.5558222E-2,4.499418E-2,-1.551787E-3,-1.6262976E-2,5.1199403E-2,6.315789E-2,-3.957704E-2,4.084507E-2,-2.688822E-2,7.079646E-3,7.9E-2,-6.666667E-2,3.1521738E-2,-7.546174E-2,7.079646E-3],"split_indices":[1,1,5,0,1,1,6,5,3,0,5,6,3,3,6,3,5,6,4,3,0,0,0,0,0,0,0,0,0,0,0,0,0,0,0,0,0,0,0],"split_type":[0,0,0,0,0,0,0,0,0,0,0,0,0,0,0,0,0,0,0,0,0,0,0,0,0,0,0,0,0,0,0,0,0,0,0,0,0,0,0],"sum_hessian":[3.16E2,2.694524E2,4.654762E1,5.5E0,2.639524E2,1.2523809E1,3.402381E1,2.2079762E2,4.3154762E1,1.75E0,1.0773809E1,5.0714283E0,2.8952381E1,1.15916664E2,1.0488095E2,3.320238E1,9.952381E0,5.3214283E0,5.452381E0,3.1904762E0,1.8809524E0,1.1904762E0,2.7761906E1,5.2404762E1,6.3511906E1,3.9904762E1,6.497619E1,2.4404762E0,3.0761904E1,3.0714285E0,6.8809524E0,2.3809524E0,2.9404762E0,1.6904762E0,3.7619047E0,2E0,1.1904762E0,2.6071428E1,1.6904762E0],"tree_param":{"num_deleted":"0","num_feature":"7","num_nodes":"39","size_leaf_vector":"1"}},{"base_weights":[1.0108932E-4,1.1562314E-1,-6.5753543E-1,-8.116042E-2,1.5778974E-1,3.5752097E-1,-1.0308878E0,5.837086E-2,6.5383613E-1,-6.1651945E-2,6.9863653E-1,1.8392493E-1,-1.2427974E0,-1.7213103E-1,3.1236857E-1,8.738442E-1,-9.289312E-2,9.88432E-2,1.1782769E0,-6.025097E-1,6.320261E-2,3.066938E-2,-1.3410603E0,1.0514467E-2,-2.4304105E-2,4.2820983E-2,-1.475371E-3,-1.5686918E-2,4.87515E-2,6.0822148E-2,-3.786245E-2,3.9418638E-2,-2.5888542E-2,6.857287E-3,7.5974666E-2,3.1232689E-2,-6.489765E-2,-7.217987E-2,9.457677E-3],"categories":[],"categories_nodes":[],"categories_segments":[],"categories_sizes":[],"default_left":[0,0,0,0,0,0,0,0,0,0,0,0,0,0,0,0,0,0,0,0,0,0,0,0,0,0,0,0,0,0,0,0,0,0,0,0,0,0,0],"id":1,"left_children":[1,3,5,-1,7,9,11,13,15,-1,17,19,21,23,25,27,29,31,33,35,-1,-1,37,-1,-1,-1,-1,-1,-1,-1,-1,-1,-1,-1,-1,-1,-1,-1,-1],"loss_changes":[2.414994E1,2.0080868E1,1.83685E1,0E0,1.3025455E1,8.194008E0,9.233986E0,1.3037457E1,7.3309174E0,0E0,3.2685528E0,5.9151373E0,6.2789116E0,1.4137945E1,1.9715155E1,4.4134445E0,1.0443239E1,3.0952528E0,2.0817337E0,4.38487E0,0E0,0E0,4.7800827E0,0E0,0E0,0E0,0E0,0E0,0E0,0E0,0E0,0E0,0E0,0E0,0E0,0E0,0E0,0E0,0E0],"parents":[2147483647,0,0,1,1,2,2,4,4,5,5,6,6,7,7,8,8,10,10,11,11,12,12,13,13,14,14,15,15,16,16,17,17,18,18,19,19,22,22],"right_children":[2,4,6,-1,8,10,12,14,16,-1,18,20,22,24,26,28,30,32,34,36,-1,-1,38,-1,-1,-1,-1,-1,-1,-1,-1,-1,-1,-1,-1,-1,-1,-1,-1],"split_conditions":[8.3451927E-1,2.541582E-2,2.9320728E1,-8.116042E-2,7.4157214E-1,8.6812323E-1,6.63095E-2,4.3611687E1,1.4560411E1,-6.1651945E-2,2.4594978E1,5.4330572E-2,1.0944979E0,8.120775E0,1.5227044E-1,2.5469017E0,2.8694838E1,9.8049685E-2,2.54E2,5.5E1,6.320261E-2,3.066938E-2,4.8120365E-1,1.0514467E-2,-2.4304105E-2,4.2820983E-2,-1.475371E-3,-1.5686918E-2,4.87515E-2,6.0822148E-2,-3.786245E-2,3.9418638E-2,-2.5888542E-2,6.857287E-3,7.5974666E-2,3.1232689E-2,-6.489765E-2,-7.217987E-2,9.457677E-3],"split_indices":[1,1,5,0,1,1,6,5,3,0,5,6,3,3,6,3,5,6,4,4,0,0,6,0,0,0,0,0,0,0,0,0,0,0,0,0,0,0,0],"split_type":[0,0,0,0,0,0,0,0,0,0,0,0,0,0,0,0,0,0,0,0,0,0,0,0,0,0,0,0,0,0,0,0,0,0,0,0,0,0,0],"sum_hessian":[3.158808E2,2.6938428E2,4.6496525E1,5.4901667E0,2.638941E2,1.2514629E1,3.3981895E1,2.2076541E2,4.3128693E1,1.7482294E0,1.07664E1,5.0669093E0,2.8914984E1,1.1590469E2,1.04860725E2,3.3182068E1,9.946626E0,5.3199043E0,5.4464965E0,3.18796E0,1.8789493E0,1.1901805E0,2.7724804E1,5.240316E1,6.3501534E1,3.988457E1,6.497615E1,2.4403148E0,3.0741753E1,3.0683675E0,6.878258E0,2.3799596E0,2.9399447E0,1.6904551E0,3.7560413E0,1.189965E0,1.9979949E0,2.6036732E1,1.688072E0],"tree_param":{"num_deleted":"0","num_feature":"7","num_nodes":"39","size_leaf_vector":"1"}},{"base_weights":[2.0047122E-4,1.0993293E-1,-6.258528E-1,-7.806959E-2,1.503167E-1,3.4291008E-1,-9.8264116E-1,5.5602815E-2,6.2348026E-1,-5.980408E-2,6.731492E-1,1.7995016E-1,-1.1857898E0,8.38986E-1,-1.2383287E-2,8.325438E-1,-8.62699E-2,9.6113406E-2,1.1352397E0,-5.8130723E-1,6.12651E-2,2.9847978E-2,-1.2807119E0,-1.7757911E-2,5.264301E-2,2.8643835E-2,-6.368381E-3,-1.5132633E-2,4.6475455E-2,5.8657046E-2,-3.624546E-2,3.8063534E-2,-2.4932457E-2,6.6420124E-3,7.3236726E-2,-6.323516E-2,3.0953018E-2,-6.896399E-2,9.158739E-3],"categories":[],"categories_nodes":[],"categories_segments":[],"categories_sizes":[],"default_left":[0,0,0,0,0,0,0,0,0,0,0,0,0,0,0,0,0,0,0,0,0,0,0,0,0,0,0,0,0,0,0,0,0,0,0,0,0,0,0],"id":2,"left_children":[1,3,5,-1,7,9,11,13,15,-1,17,19,21,23,25,27,29,31,33,35,-1,-1,37,-1,-1,-1,-1,-1,-1,-1,-1,-1,-1,-1,-1,-1,-1,-1,-1],"loss_changes":[2.1815382E1,1.8471203E1,1.6706205E1,0E0,1.1829269E1,7.6604743E0,8.449009E0,1.1816619E1,6.608883E0,0E0,3.0227017E0,5.5307856E0,5.809929E0,4.8986444E0,1.38658085E1,4.0376225E0,9.641764E0,2.8781059E0,1.9290934E0,4.2134113E0,0E0,0E0,4.3831406E0,0E0,0E0,0E0,0E0,0E0,0E0,0E0,0E0,0E0,0E0,0E0,0E0,0E0,0E0,0E0,0E0],"parents":[2147483647,0,0,1,1,2,2,4,4,5,5,6,6,7,7,8,8,10,10,11,11,12,12,13,13,14,14,15,15,16,16,17,17,18,18,19,19,22,22],"right_children":[2,4,6,-1,8,10,12,14,16,-1,18,20,22,24,26,28,30,32,34,36,-1,-1,38,-1,-1,-1,-1,-1,-1,-1,-1,-1,-1,-1,-1,-1,-1,-1,-1],"split_conditions":[8.3451927E-1,2.541582E-2,2.9320728E1,-7.806959E-2,7.4157214E-1,8.6812323E-1,6.63095E-2,2.0011704E0,1.4560411E1,-5.980408E-2,2.4594978E1,5.4330572E-2,1.0944979E0,7.535735E-2,7.02028E-2,2.5469017E0,2.8694838E1,9.8049685E-2,2.54E2,5.368111E1,6.12651E-2,2.9847978E-2,4.8120365E-1,-1.7757911E-2,5.264301E-2,2.8643835E-2,-6.368381E-3,-1.5132633E-2,4.6475455E-2,5.8657046E-2,-3.624546E-2,3.8063534E-2,-2.4932457E-2,6.6420124E-3,7.3236726E-2,-6.323516E-2,3.0953018E-2,-6.896399E-2,9.158739E-3],"split_indices":[1,1,5,0,1,1,6,3,3,0,5,6,3,6,6,3,5,6,4,5,0,0,6,0,0,0,0,0,0,0,0,0,0,0,0,0,0,0,0],"split_type":[0,0,0,0,0,0,0,0,0,0,0,0,0,0,0,0,0,0,0,0,0,0,0,0,0,0,0,0,0,0,0,0,0,0,0,0,0,0,0],"sum_hessian":[3.155516E2,2.6919284E2,4.6358784E1,5.4623857E0,2.6373044E2,1.2488503E1,3.387028E1,2.2067508E2,4.305536E1,1.7431505E0,1.0745353E1,5.055062E0,2.8815218E1,1.6716412E1,2.0395866E2,3.3125057E1,9.930302E0,5.3155513E0,5.4298015E0,3.1818519E0,1.8732101E0,1.1893258E0,2.7625893E1,2.4388356E0,1.42775755E1,3.283734E1,1.7112134E2,2.4398534E0,3.0685204E1,3.059656E0,6.870646E0,2.377122E0,2.9384296E0,1.690394E0,3.7394073E0,1.9933797E0,1.1884722E0,2.5937256E1,1.6886364E0],"tree_param":{"num_deleted":"0","num_feature":"7","num_nodes":"39","size_leaf_vector":"1"}},{"base_weights":[3.8713773E-4,1.0464396E-1,-5.967129E-1,-7.5287335E-2,1.4332087E-1,3.2928267E-1,-9.384327E-1,5.3096894E-2,5.9511226E-1,-5.8078565E-2,6.4931715E-1,1.7627996E-1,-1.1336844E0,-1.650835E-1,2.93654E-1,7.939459E-1,-8.0077395E-2,9.349673E-2,1.0954969E0,-5.612817E-1,5.9460618E-2,-6.941237E-1,-8.3604276E-2,9.759783E-3,-2.3044465E-2,4.003842E-2,-1.2180037E-3,-1.4599139E-2,4.435065E-2,-4.754053E-2,3.9778817E-2,3.6773916E-2,-2.4017287E-2,6.433592E-3,7.074598E-2,3.068157E-2,-6.166892E-2,-5.941207E-2,5.807955E-2],"categories":[],"categories_nodes":[],"categories_segments":[],"categories_sizes":[],"default_left":[0,0,0,0,0,0,0,0,0,0,0,0,0,0,0,0,0,0,0,0,0,0,0,0,0,0,0,0,0,0,0,0,0,0,0,0,0,0,0],"id":3,"left_children":[1,3,5,-1,7,9,11,13,15,-1,17,19,21,23,25,27,29,31,33,35,-1,37,-1,-1,-1,-1,-1,-1,-1,-1,-1,-1,-1,-1,-1,-1,-1,-1,-1],"loss_changes":[1.9741747E1,1.7031696E1,1.5225931E1,0E0,1.0752681E1,7.170325E0,7.750925E0,1.1680317E1,5.962734E0,0E0,2.8021803E0,5.177407E0,5.8580284E0,1.2543705E1,1.707634E1,3.6988907E0,9.070868E0,2.6773777E0,1.7955503E0,4.0516386E0,0E0,1.7919165E1,0E0,0E0,0E0,0E0,0E0,0E0,0E0,0E0,0E0,0E0,0E0,0E0,0E0,0E0,0E0,0E0,0E0],"parents":[2147483647,0,0,1,1,2,2,4,4,5,5,6,6,7,7,8,8,10,10,11,11,12,12,13,13,14,14,15,15,16,16,17,17,18,18,19,19,21,21],"right_children":[2,4,6,-1,8,10,12,14,16,-1,18,20,22,24,26,28,30,32,34,36,-1,38,-1,-1,-1,-1,-1,-1,-1,-1,-1,-1,-1,-1,-1,-1,-1,-1,-1],"split_conditions":[8.3451927E-1,2.541582E-2,2.9320728E1,-7.5287335E-2,7.4157214E-1,8.6812323E-1,6.63095E-2,4.3611687E1,1.4560411E1,-5.8078565E-2,2.4594978E1,5.4330572E-2,9.1426015E-1,8.120775E0,1.5227044E-1,2.5469017E0,1.7837954E1,9.8049685E-2,2.54E2,7.544756E-3,5.9460618E-2,9.103812E-1,-8.3604276E-2,9.759783E-3,-2.3044465E-2,4.003842E-2,-1.2180037E-3,-1.4599139E-2,4.435065E-2,-4.754053E-2,3.9778817E-2,3.6773916E-2,-2.4017287E-2,6.433592E-3,7.074598E-2,3.068157E-2,-6.166892E-2,-5.941207E-2,5.807955E-2],"split_indices":[1,1,5,0,1,1,6,5,3,0,5,6,1,3,6,3,3,6,4,6,0,1,0,0,0,0,0,0,0,0,0,0,0,0,0,0,0,0,0],"split_type":[0,0,0,0,0,0,0,0,0,0,0,0,0,0,0,0,0,0,0,0,0,0,0,0,0,0,0,0,0,0,0,0,0,0,0,0,0,0,0],"sum_hessian":[3.1512448E2,2.689833E2,4.6141163E1,5.4190454E0,2.6356427E2,1.2447419E1,3.3693745E1,2.2062282E2,4.2941452E1,1.7350968E0,1.0712322E1,5.0365734E0,2.865717E1,1.15856804E2,1.04766014E2,3.3036728E1,9.904725E0,5.308679E0,5.4036436E0,3.1724524E0,1.8641212E0,1.7037043E1,1.1620127E1,5.2389137E1,6.3467663E1,3.979297E1,6.4973045E1,2.439124E0,3.0597603E1,4.9232802E0,4.9814444E0,2.3726375E0,2.9360416E0,1.6902972E0,3.7133462E0,1.1860578E0,1.9863946E0,1.3738582E1,3.2984617E0],"tree_param":{"num_deleted":"0","num_feature":"7","num_nodes":"39","size_leaf_vector":"1"}},{"base_weights":[1.8664122E-4,9.9442124E-2,-5.7094884E-1,-7.276856E-2,1.3649726E-1,3.1653294E-1,-8.992476E-1,5.0598443E-2,5.676685E-1,-5.6462992E-2,6.2696344E-1,1.728871E-1,-1.0875568E0,-1.5701954E-1,2.7961704E-1,-1.686268E-1,7.359444E-1,8.6460763E-1,-1.4201912E-2,-5.4233515E-1,5.777518E-2,-8.0741845E-2,-6.5896255E-1,9.282365E-3,-2.1926146E-2,3.8180027E-2,-1.1580371E-3,5.933995E-2,-5.3472824E-2,4.5463964E-2,-7.10486E-3,-3.873455E-3,5.575926E-2,2.9861627E-2,-5.9854586E-2,-7.7093467E-3,-7.477929E-2],"categories":[],"categories_nodes":[],"categories_segments":[],"categories_sizes":[],"default_left":[0,0,0,0,0,0,0,0,0,0,0,0,0,0,0,0,0,0,0,0,0,0,0,0,0,0,0,0,0,0,0,0,0,0,0,0,0],"id":4,"left_children":[1,3,5,-1,7,9,11,13,15,-1,17,19,21,23,25,27,29,31,-1,33,-1,-1,35,-1,-1,-1,-1,-1,-1,-1,-1,-1,-1,-1,-1,-1,-1],"loss_changes":[1.794178E1,1.5733501E1,1.3937618E1,0E0,9.759263E0,6.7191195E0,7.146549E0,1.0574448E1,5.551591E0,0E0,2.7718158E0,4.851901E0,5.5922394E0,1.1348428E1,1.5502107E1,1.2212615E1,5.5842743E0,2.3294497E0,0E0,3.8189132E0,0E0,0E0,7.3443155E0,0E0,0E0,0E0,0E0,0E0,0E0,0E0,0E0,0E0,0E0,0E0,0E0,0E0,0E0],"parents":[2147483647,0,0,1,1,2,2,4,4,5,5,6,6,7,7,8,8,10,10,11,11,12,12,13,13,14,14,15,15,16,16,17,17,19,19,22,22],"right_children":[2,4,6,-1,8,10,12,14,16,-1,18,20,22,24,26,28,30,32,-1,34,-1,-1,36,-1,-1,-1,-1,-1,-1,-1,-1,-1,-1,-1,-1,-1,-1],"split_conditions":[8.3451927E-1,2.541582E-2,2.9320728E1,-7.276856E-2,7.4157214E-1,8.6812323E-1,6.63095E-2,4.3611687E1,1.31E2,-5.6462992E-2,9.624177E-1,5.4330572E-2,2.880354E-1,8.120775E0,1.5227044E-1,1.0379308E-1,8.6777663E-1,2.115525E1,-1.4201912E-2,7.544756E-3,5.777518E-2,-8.0741845E-2,9.1426015E-1,9.282365E-3,-2.1926146E-2,3.8180027E-2,-1.1580371E-3,5.933995E-2,-5.3472824E-2,4.5463964E-2,-7.10486E-3,-3.873455E-3,5.575926E-2,2.9861627E-2,-5.9854586E-2,-7.7093467E-3,-7.477929E-2],"split_indices":[1,1,5,0,1,1,6,5,4,0,1,6,6,3,6,6,0,5,0,6,0,0,1,0,0,0,0,0,0,0,0,0,0,0,0,0,0],"split_type":[0,0,0,0,0,0,0,0,0,0,0,0,0,0,0,0,0,0,0,0,0,0,0,0,0,0,0,0,0,0,0,0,0,0,0,0,0],"sum_hessian":[3.1449713E2,2.686375E2,4.5859615E1,5.362305E0,2.632752E2,1.2393208E1,3.3466408E1,2.2047006E2,4.280515E1,1.7243824E0,1.0668825E1,5.012088E0,2.8454319E1,1.158028E2,1.0466725E2,7.962584E0,3.4842564E1,8.501934E0,2.1668913E0,3.160042E0,1.8520458E0,1.1517327E1,1.6936993E1,5.2381123E1,6.3421684E1,3.96945E1,6.4972755E1,3.052386E0,4.910198E0,2.9068544E1,5.7740197E0,1.9314082E0,6.570526E0,1.1851717E0,1.9748703E0,1.1302151E1,5.634842E0],"tree_param":{"num_deleted":"0","num_feature":"7","num_nodes":"37","size_leaf_vector":"1"}},{"base_weights":[-3.4306385E-4,9.459605E-2,-5.492623E-1,-7.047632E-2,1.3010302E-1,3.00206E-1,-8.6476225E-1,7.375732E-2,7.319634E-1,-5.494647E-2,6.002387E-1,1.6973378E-1,-1.0468447E0,9.9718474E-2,-7.5106464E-2,1.1180745E0,-7.892737E-2,7.067544E-2,1.0313383E0,-5.245461E-1,5.619664E-2,-7.7968016E-2,-6.333401E-1,-1.05495E-2,1.1349461E-2,6.2182393E-2,2.971731E-3,4.6938814E-2,-4.7642168E-2,3.493575E-2,-2.4192277E-2,5.134346E-3,6.730158E-2,-5.8491018E-2,2.9595977E-2,-7.360425E-3,-7.233E-2],"categories":[],"categories_nodes":[],"categories_segments":[],"categories_sizes":[],"default_left":[0,0,0,0,0,0,0,0,0,0,0,0,0,0,0,0,0,0,0,0,0,0,0,0,0,0,0,0,0,0,0,0,0,0,0,0,0],"id":5,"left_children":[1,3,5,-1,7,9,11,13,15,-1,17,19,21,23,-1,25,27,29,31,33,-1,-1,35,-1,-1,-1,-1,-1,-1,-1,-1,-1,-1,-1,-1,-1,-1],"loss_changes":[1.6458765E1,1.4563537E1,1.2740453E1,0E0,8.897579E0,6.2655606E0,6.622511E0,1.0070021E1,7.1279945E0,0E0,2.585136E0,4.5520754E0,5.207775E0,9.518156E0,0E0,1.9597111E0,8.175713E0,2.5315502E0,1.7159257E0,3.6778946E0,0E0,0E0,6.84941E0,0E0,0E0,0E0,0E0,0E0,0E0,0E0,0E0,0E0,0E0,0E0,0E0,0E0,0E0],"parents":[2147483647,0,0,1,1,2,2,4,4,5,5,6,6,7,7,8,8,10,10,11,11,12,12,13,13,15,15,16,16,17,17,18,18,19,19,22,22],"right_children":[2,4,6,-1,8,10,12,14,16,-1,18,20,22,24,-1,26,28,30,32,34,-1,-1,36,-1,-1,-1,-1,-1,-1,-1,-1,-1,-1,-1,-1,-1,-1],"split_conditions":[8.3451927E-1,2.541582E-2,2.9320728E1,-7.047632E-2,7.9041E-1,8.6812323E-1,6.63095E-2,9.8541224E-1,8.129325E-1,-5.494647E-2,2.4594978E1,5.4330572E-2,2.880354E-1,1.58E2,-7.5106464E-2,4.516281E-1,4.3377776E0,9.8049685E-2,2.54E2,5.368111E1,5.619664E-2,-7.7968016E-2,9.1426015E-1,-1.05495E-2,1.1349461E-2,6.2182393E-2,2.971731E-3,4.6938814E-2,-4.7642168E-2,3.493575E-2,-2.4192277E-2,5.134346E-3,6.730158E-2,-5.8491018E-2,2.9595977E-2,-7.360425E-3,-7.233E-2],"split_indices":[1,1,5,0,1,1,6,0,1,0,5,6,6,4,0,6,3,6,4,5,0,0,1,0,0,0,0,0,0,0,0,0,0,0,0,0,0],"split_type":[0,0,0,0,0,0,0,0,0,0,0,0,0,0,0,0,0,0,0,0,0,0,0,0,0,0,0,0,0,0,0,0,0,0,0,0,0],"sum_hessian":[3.1382587E2,2.682568E2,4.5569073E1,5.294109E0,2.6296268E2,1.2354271E1,3.32148E1,2.4147824E2,2.1484457E1,1.7113013E0,1.064297E1,4.981333E0,2.8233469E1,2.3848613E2,2.9920988E0,1.4297691E1,7.186765E0,5.2983785E0,5.3445916E0,3.144011E0,1.8373219E0,1.1369961E1,1.6863508E1,6.910965E1,1.6937648E2,1.2625343E1,1.6723481E0,3.2859507E0,3.9008145E0,2.3625581E0,2.9358203E0,1.688419E0,3.6561725E0,1.9621658E0,1.1818452E0,1.1293657E1,5.56985E0],"tree_param":{"num_deleted":"0","num_feature":"7","num_nodes":"37","size_leaf_vector":"1"}},{"base_weights":[-9.3052053E-4,5.1425827E-1,-9.57469E-2,-2.3271817E-1,8.9736784E-1,1.3533455E-2,-7.2470224E-1,2.9856694E-1,-8.110553E-2,7.491146E-2,4.2958668E-1,-2.5860015E-1,3.987307E-1,1.5927923E-1,-1.028819E0,-6.9317466E-1,7.081026E-1,-2.5674677E-1,9.933676E-1,-1.7174818E-1,-1.3647895E0,-2.9370862E-1,5.619461E-1,-5.3519458E-2,5.000061E-1,2.949076E-2,-1.1174802E0,-6.716802E-2,2.9358422E-2,5.0879877E-2,-1.4118581E-2,2.0842073E-2,-7.240776E-2,6.2910125E-2,-8.659928E-3,-4.686387E-3,-8.233583E-2,-8.3245024E-2,-1.7034741E-2,2.4153495E-2,-3.3719838E-2,-6.103621E-2,3.0671125E-2,-2.329598E-2,4.814827E-2,-6.0687095E-2,1.3029854E-2],"categories":[],"categories_nodes":[],"categories_segments":[],"categories_sizes":[],"default_left":[0,0,0,0,0,0,0,0,0,0,0,0,0,0,0,0,0,0,0,0,0,0,0,0,0,0,0,0,0,0,0,0,0,0,0,0,0,0,0,0,0,0,0,0,0,0,0],"id":6,"left_children":[1,3,5,7,9,11,13,15,-1,-1,17,19,21,23,25,27,29,31,33,35,37,39,41,-1,43,-1,45,-1,-1,-1,-1,-1,-1,-1,-1,-1,-1,-1,-1,-1,-1,-1,-1,-1,-1,-1,-1],"loss_changes":[1.5399634E1,1.4231901E1,1.8309425E1,1.33329115E1,8.51812E0,2.3983736E1,1.0764032E1,5.9478955E0,0E0,0E0,7.8891993E0,1.2649801E1,1.0868629E1,5.126756E0,4.888542E0,4.4783278E0,3.3539867E0,8.381893E0,3.6278276E0,1.428644E1,2.389038E0,5.862129E0,7.813452E0,0E0,4.5908155E0,0E0,4.0686493E0,0E0,0E0,0E0,0E0,0E0,0E0,0E0,0E0,0E0,0E0,0E0,0E0,0E0,0E0,0E0,0E0,0E0,0E0,0E0,0E0],"parents":[2147483647,0,0,1,1,2,2,3,3,4,4,5,5,6,6,7,7,10,10,11,11,12,12,13,13,14,14,15,15,16,16,17,17,18,18,19,19,20,20,21,21,22,22,24,24,26,26],"right_children":[2,4,6,8,10,12,14,16,-1,-1,18,20,22,24,26,28,30,32,34,36,38,40,42,-1,44,-1,46,-1,-1,-1,-1,-1,-1,-1,-1,-1,-1,-1,-1,-1,-1,-1,-1,-1,-1,-1,-1],"split_conditions":[7.02028E-2,2.7864272E-2,8.289793E-1,5.7608104E-1,3.171526E-1,5.3046334E-1,2.8901716E1,3.628609E1,-8.110553E-2,7.491146E-2,2.1E2,5.6632732E1,1.25E2,8.6812323E-1,1.0944979E0,5.084958E-1,1.7140763E-2,9.9E1,4.968679E1,4.9464303E-1,3.3104905E-1,2.3128128E-1,1.04300655E-1,-5.3519458E-2,2.2506823E-1,2.949076E-2,9.736903E-1,-6.716802E-2,2.9358422E-2,5.0879877E-2,-1.4118581E-2,2.0842073E-2,-7.240776E-2,6.2910125E-2,-8.659928E-3,-4.686387E-3,-8.233583E-2,-8.3245024E-2,-1.7034741E-2,2.4153495E-2,-3.3719838E-2,-6.103621E-2,3.0671125E-2,-2.329598E-2,4.814827E-2,-6.0687095E-2,1.3029854E-2],"split_indices":[6,6,1,0,1,1,5,5,0,0,4,5,4,1,3,0,6,4,5,1,1,0,6,0,6,0,0,0,0,0,0,0,0,0,0,0,0,0,0,0,0,0,0,0,0,0,0],"split_type":[0,0,0,0,0,0,0,0,0,0,0,0,0,0,0,0,0,0,0,0,0,0,0,0,0,0,0,0,0,0,0,0,0,0,0,0,0,0,0,0,0,0,0,0,0,0,0],"sum_hessian":[3.132461E2,4.800192E1,2.6524417E2,1.6406174E1,3.1595745E1,2.2681395E2,3.843021E1,1.2435945E1,3.9702294E0,1.2866273E1,1.8729471E1,1.3310603E2,9.370791E1,9.958862E0,2.8471348E1,3.4320998E0,9.003844E0,8.692287E0,1.0037184E1,1.24487236E2,8.6188E0,1.7722197E1,7.598572E1,1.6961268E0,8.262736E0,1.1850029E0,2.7286346E1,2.2435555E0,1.1885445E0,6.8393564E0,2.1644883E0,5.9681773E0,2.7241096E0,8.116106E0,1.9210776E0,1.1924325E2,5.2439876E0,6.1815643E0,2.4372356E0,5.740337E0,1.198186E1,1.495095E0,7.4490616E1,2.6750584E0,5.5876775E0,2.5616245E1,1.6701007E0],"tree_param":{"num_deleted":"0","num_feature":"7","num_nodes":"47","size_leaf_vector":"1"}},{"base_weights":[-1.784324E-3,4.9069628E-1,-9.220446E-2,-2.2624455E-1,8.5970896E-1,-5.6475574E-1,4.4863556E-2,2.8426206E-1,-7.7927046E-2,7.195797E-2,4.0997642E-1,7.8310096E-1,-7.084391E-1,1.2149857E0,-5.4150685E-3,-6.6843367E-1,6.7797804E-1,-2.4948208E-1,9.548319E-1,-5.273798E-2,7.2484314E-2,-4.3586874E-1,-1.3265721E0,1.3335748E0,1.8190691E-2,5.4407164E-2,-1.1779554E0,-6.499357E-2,2.8583432E-2,4.881759E-2,-1.3627628E-2,1.9954946E-2,-6.989659E-2,6.0594928E-2,-8.370385E-3,3.5038188E-3,-4.9108297E-2,-8.620203E-2,-3.3618875E-2,1.2115761E-2,7.820546E-2,2.4714436E-2,-6.6593043E-3,-7.331311E-2,2.6512424E-2],"categories":[],"categories_nodes":[],"categories_segments":[],"categories_sizes":[],"default_left":[0,0,0,0,0,0,0,0,0,0,0,0,0,0,0,0,0,0,0,0,0,0,0,0,0,0,0,0,0,0,0,0,0,0,0,0,0,0,0,0,0,0,0,0,0],"id":7,"left_children":[1,3,5,7,9,11,13,15,-1,-1,17,19,21,23,25,27,29,31,33,-1,-1,35,37,39,-1,41,43,-1,-1,-1,-1,-1,-1,-1,-1,-1,-1,-1,-1,-1,-1,-1,-1,-1,-1],"loss_changes":[1.4005733E1,1.3102294E1,1.7236254E1,1.2257597E1,7.858288E0,1.2139385E1,1.2178882E1,5.480997E0,0E0,0E0,7.2989593E0,9.170404E0,8.617771E0,3.756752E-1,1.4048731E1,4.206665E0,3.0968642E0,7.770632E0,3.3669262E0,0E0,0E0,1.0949808E1,3.0565834E0,1.409749E0,0E0,1.5797909E1,5.565507E0,0E0,0E0,0E0,0E0,0E0,0E0,0E0,0E0,0E0,0E0,0E0,0E0,0E0,0E0,0E0,0E0,0E0,0E0],"parents":[2147483647,0,0,1,1,2,2,3,3,4,4,5,5,6,6,7,7,10,10,11,11,12,12,13,13,14,14,15,15,16,16,17,17,18,18,21,21,22,22,23,23,25,25,26,26],"right_children":[2,4,6,8,10,12,14,16,-1,-1,18,20,22,24,26,28,30,32,34,-1,-1,36,38,40,-1,42,44,-1,-1,-1,-1,-1,-1,-1,-1,-1,-1,-1,-1,-1,-1,-1,-1,-1,-1],"split_conditions":[7.02028E-2,2.7864272E-2,1.27E2,5.7608104E-1,3.171526E-1,2.1993376E1,1.3979961E0,3.628609E1,-7.7927046E-2,7.195797E-2,2.1E2,2.115525E1,9.1E1,9.122199E-1,9.1426015E-1,5.084958E-1,1.7140763E-2,9.9E1,4.968679E1,-5.273798E-2,7.2484314E-2,5.084958E-1,6.589337E-1,2.0027946E-1,1.8190691E-2,2.2E2,9.880528E-1,-6.499357E-2,2.8583432E-2,4.881759E-2,-1.3627628E-2,1.9954946E-2,-6.989659E-2,6.0594928E-2,-8.370385E-3,3.5038188E-3,-4.9108297E-2,-8.620203E-2,-3.3618875E-2,1.2115761E-2,7.820546E-2,2.4714436E-2,-6.6593043E-3,-7.331311E-2,2.6512424E-2],"split_indices":[6,6,4,0,1,5,3,5,0,0,4,5,4,1,1,0,6,4,5,0,0,0,1,0,0,4,1,0,0,0,0,0,0,0,0,0,0,0,0,0,0,0,0,0,0],"split_type":[0,0,0,0,0,0,0,0,0,0,0,0,0,0,0,0,0,0,0,0,0,0,0,0,0,0,0,0,0,0,0,0,0,0,0,0,0,0,0,0,0,0,0,0,0],"sum_hessian":[3.1250635E2,4.7789597E1,2.6471677E2,1.6370625E1,3.1418972E1,5.881788E1,2.0589888E2,1.2404233E1,3.9663913E0,1.2768099E1,1.8650873E1,5.237361E0,5.3580517E1,7.528351E0,1.9837053E2,3.4231927E0,8.98104E0,8.683287E0,9.9675865E0,1.2389861E0,3.998375E0,3.8367302E1,1.5213213E1,6.1102877E0,1.4180632E0,1.8964839E2,8.7221365E0,2.236308E0,1.1868845E0,6.8147187E0,2.166321E0,5.966325E0,2.7169619E0,8.044886E0,1.9227009E0,2.0371895E1,1.7995407E1,8.4461975E0,6.767015E0,1.4234302E0,4.686857E0,5.6209526E1,1.3343886E2,7.5837955E0,1.1383412E0],"tree_param":{"num_deleted":"0","num_feature":"7","num_nodes":"45","size_leaf_vector":"1"}},{"base_weights":[-1.9280468E-3,8.354046E-2,-5.0541747E-1,-6.731261E-2,1.1673021E-1,2.648315E-1,-7.94525E-1,1.3608676E-1,-6.8323605E-2,-5.236123E-2,5.476825E-1,1.2820719E-1,-9.565212E-1,5.884319E-2,5.2702343E-1,7.7687645E-1,-1.5515178E-2,-5.162423E-1,5.1627487E-2,-7.278972E-2,-5.6231296E-1,3.9014883E-2,-1.6706367E-4,-7.868906E-3,3.433973E-2,-3.131567E-3,5.0114747E-2,-5.68143E-2,2.8146267E-2,-5.383781E-3,-6.729321E-2],"categories":[],"categories_nodes":[],"categories_segments":[],"categories_sizes":[],"default_left":[0,0,0,0,0,0,0,0,0,0,0,0,0,0,0,0,0,0,0,0,0,0,0,0,0,0,0,0,0,0,0],"id":8,"left_children":[1,3,5,-1,7,9,11,13,-1,-1,15,17,19,21,23,25,-1,27,-1,-1,29,-1,-1,-1,-1,-1,-1,-1,-1,-1,-1],"loss_changes":[1.3507242E1,1.2891729E1,1.0353674E1,0E0,7.741945E0,5.4652147E0,5.110588E0,7.8415856E0,0E0,0E0,2.5024807E0,3.9513063E0,4.7914143E0,9.819486E0,4.797702E0,1.8342595E0,0E0,3.3773174E0,0E0,0E0,6.1094685E0,0E0,0E0,0E0,0E0,0E0,0E0,0E0,0E0,0E0,0E0],"parents":[2147483647,0,0,1,1,2,2,4,4,5,5,6,6,7,7,10,10,11,11,12,12,13,13,14,14,15,15,17,17,20,20],"right_children":[2,4,6,-1,8,10,12,14,-1,-1,16,18,20,22,24,26,-1,28,-1,-1,30,-1,-1,-1,-1,-1,-1,-1,-1,-1,-1],"split_conditions":[8.3451927E-1,2.541582E-2,2.9320728E1,-6.731261E-2,9.8918265E-1,8.6812323E-1,6.63095E-2,7.4157214E-1,-6.8323605E-2,-5.236123E-2,9.624177E-1,5.4330572E-2,2.880354E-1,2.0011704E0,1.31E2,2.115525E1,-1.5515178E-2,1.7358067E1,5.1627487E-2,-7.278972E-2,9.1426015E-1,3.9014883E-2,-1.6706367E-4,-7.868906E-3,3.433973E-2,-3.131567E-3,5.0114747E-2,-5.68143E-2,2.8146267E-2,-5.383781E-3,-6.729321E-2],"split_indices":[1,1,5,0,0,1,6,1,0,0,1,6,6,3,4,5,0,3,0,0,1,0,0,0,0,0,0,0,0,0,0],"split_type":[0,0,0,0,0,0,0,0,0,0,0,0,0,0,0,0,0,0,0,0,0,0,0,0,0,0,0,0,0,0,0],"sum_hessian":[3.119036E2,2.6735376E2,4.454985E1,5.167759E0,2.6218597E2,1.2180954E1,3.2368896E1,2.5970496E2,2.481036E0,1.680989E0,1.0499965E1,4.865206E0,2.7503689E1,2.1781775E2,4.1887203E1,8.361019E0,2.138945E0,3.0913851E0,1.7738206E0,1.0946612E1,1.6557077E1,1.636821E1,2.0144954E2,7.9305587E0,3.3956642E1,1.922683E0,6.4383364E0,1.9297215E0,1.1616637E0,1.1197442E1,5.359635E0],"tree_param":{"num_deleted":"0","num_feature":"7","num_nodes":"31","size_leaf_vector":"1"}},{"base_weights":[-2.5528586E-3,4.647542E-1,-8.799988E-2,-1.8616104E-1,8.453956E-1,-5.3377205E-1,4.105686E-2,3.1147096E-1,-7.6994024E-2,1.2894369E0,6.443197E-2,7.449976E-1,-6.706633E-1,1.1555245E0,-6.6665704E-3,-2.0516965E-1,6.994114E-1,1.4606155E0,-9.911212E-3,-7.8341015E-2,8.9664984E-1,-5.1129974E-2,6.926295E-2,-4.0845215E-1,-1.2665161E0,6.3464634E-2,1.7043455E-2,3.741269E-1,-1.6938274E-1,-6.9582276E-2,3.755203E-2,5.8045268E-2,-5.565656E-2,2.3565287E-2,7.508991E-2,-1.870025E-3,5.819681E-2,3.5826673E-3,-4.649706E-2,-8.2617454E-2,-3.1684164E-2,-4.6567254E-2,2.8583203E-2,-2.4628083E-3,-4.3037917E-2],"categories":[],"categories_nodes":[],"categories_segments":[],"categories_sizes":[],"default_left":[0,0,0,0,0,0,0,0,0,0,0,0,0,0,0,0,0,0,0,0,0,0,0,0,0,0,0,0,0,0,0,0,0,0,0,0,0,0,0,0,0,0,0,0,0],"id":9,"left_children":[1,3,5,7,9,11,13,15,-1,17,19,21,23,25,27,29,31,33,-1,-1,35,-1,-1,37,39,-1,-1,41,43,-1,-1,-1,-1,-1,-1,-1,-1,-1,-1,-1,-1,-1,-1,-1,-1],"loss_changes":[1.250602E1,1.2153289E1,1.5253414E1,1.3066889E1,1.0573942E1,1.0917555E1,1.0977086E1,3.0485456E0,0E0,5.2653046E0,1.7956415E1,8.465544E0,7.9640675E0,3.5280037E-1,1.2379409E1,8.97466E0,8.406568E0,1.0990143E-2,0E0,0E0,2.2179031E0,0E0,0E0,9.874132E0,2.8870945E0,0E0,0E0,1.5958618E1,1.15808525E1,0E0,0E0,0E0,0E0,0E0,0E0,0E0,0E0,0E0,0E0,0E0,0E0,0E0,0E0,0E0,0E0],"parents":[2147483647,0,0,1,1,2,2,3,3,4,4,5,5,6,6,7,7,9,9,10,10,11,11,12,12,13,13,14,14,15,15,16,16,17,17,20,20,23,23,24,24,27,27,28,28],"right_children":[2,4,6,8,10,12,14,16,-1,18,20,22,24,26,28,30,32,34,-1,-1,36,-1,-1,38,40,-1,-1,42,44,-1,-1,-1,-1,-1,-1,-1,-1,-1,-1,-1,-1,-1,-1,-1,-1],"split_conditions":[7.02028E-2,2.853709E-2,1.27E2,5.7608104E-1,4.9464303E-1,2.1993376E1,1.3979961E0,2.23E2,-7.6994024E-2,8.41776E-1,7.383057E-1,2.115525E1,9.1E1,3.84E2,2.2E2,4.6713028E1,1.1898421E1,2.2317333E0,-9.911212E-3,-7.8341015E-2,3.4770685E-1,-5.1129974E-2,6.926295E-2,5.084958E-1,6.589337E-1,6.3464634E-2,1.7043455E-2,1.3133252E-1,8.1056386E-1,-6.9582276E-2,3.755203E-2,5.8045268E-2,-5.565656E-2,2.3565287E-2,7.508991E-2,-1.870025E-3,5.819681E-2,3.5826673E-3,-4.649706E-2,-8.2617454E-2,-3.1684164E-2,-4.6567254E-2,2.8583203E-2,-2.4628083E-3,-4.3037917E-2],"split_indices":[6,6,4,0,1,5,3,4,0,0,1,5,4,4,4,5,3,3,0,0,0,0,0,0,1,0,0,6,1,0,0,0,0,0,0,0,0,0,0,0,0,0,0,0,0],"split_type":[0,0,0,0,0,0,0,0,0,0,0,0,0,0,0,0,0,0,0,0,0,0,0,0,0,0,0,0,0,0,0,0,0,0,0,0,0,0,0,0,0,0,0,0,0],"sum_hessian":[3.1117435E2,4.741641E1,2.6375793E2,1.768505E1,2.973136E1,5.8513103E1,2.0524483E2,1.3494382E1,4.190667E0,1.8539223E1,1.1192138E1,5.2285295E0,5.3284573E1,7.474835E0,1.9776999E2,5.989278E0,7.505104E0,1.6642431E1,1.8967915E0,3.4827678E0,7.7093697E0,1.2315042E0,3.9970255E0,3.817206E1,1.5112515E1,6.0691876E0,1.4056475E0,5.8819496E1,1.389505E2,2.469598E0,3.5196798E0,6.26857E0,1.2365338E0,1.1624212E0,1.548001E1,1.9066216E0,5.802748E0,2.032374E1,1.7848318E1,8.387618E0,6.7248974E0,7.2422886E0,5.157721E1,1.1929434E2,1.9656158E1],"tree_param":{"num_deleted":"0","num_feature":"7","num_nodes":"45","size_leaf_vector":"1"}},{"base_weights":[-2.9425898E-3,7.771244E-2,-4.835162E-1,-6.509557E-2,1.0922572E-1,2.5112838E-1,-7.61988E-1,2.858176E-2,4.5235592E-1,-5.0945222E-2,5.243434E-1,1.0368176E-1,-9.135524E-1,7.366316E-1,-3.354057E-2,5.840747E-1,-9.424496E-2,9.642539E-3,9.558108E-1,-5.099548E-1,4.9062442E-2,-7.0046596E-2,-5.3486985E-1,8.439524E-3,5.9686046E-2,2.3846056E-2,-6.696255E-3,2.3981591E-3,4.436791E-2,6.1326504E-2,-3.5434354E-2,3.0074311E-2,-2.4653317E-2,4.0781964E-3,6.302497E-2,-5.5585593E-2,2.7126139E-2,-4.862945E-3,-6.509965E-2],"categories":[],"categories_nodes":[],"categories_segments":[],"categories_sizes":[],"default_left":[0,0,0,0,0,0,0,0,0,0,0,0,0,0,0,0,0,0,0,0,0,0,0,0,0,0,0,0,0,0,0,0,0,0,0,0,0,0,0],"id":10,"left_children":[1,3,5,-1,7,9,11,13,15,-1,17,19,21,23,25,27,29,31,33,35,-1,-1,37,-1,-1,-1,-1,-1,-1,-1,-1,-1,-1,-1,-1,-1,-1,-1,-1],"loss_changes":[1.2110803E1,1.1775611E1,9.377293E0,0E0,7.25154E0,5.077825E0,4.399254E0,9.421605E0,3.647091E0,0E0,2.5305004E0,3.6163683E0,4.4223804E0,4.282422E0,1.0177075E1,6.5168037E0,9.430262E0,2.1487508E0,1.5516143E0,3.1765308E0,0E0,0E0,5.7101297E0,0E0,0E0,0E0,0E0,0E0,0E0,0E0,0E0,0E0,0E0,0E0,0E0,0E0,0E0,0E0,0E0],"parents":[2147483647,0,0,1,1,2,2,4,4,5,5,6,6,7,7,8,8,10,10,11,11,12,12,13,13,14,14,15,15,16,16,17,17,18,18,19,19,22,22],"right_children":[2,4,6,-1,8,10,12,14,16,-1,18,20,22,24,26,28,30,32,34,36,-1,-1,38,-1,-1,-1,-1,-1,-1,-1,-1,-1,-1,-1,-1,-1,-1,-1,-1],"split_conditions":[8.3451927E-1,2.541582E-2,2.9320728E1,-6.509557E-2,7.119328E-1,8.6812323E-1,6.63095E-2,2.0011704E0,1.5093589E1,-5.0945222E-2,2.4594978E1,5.4330572E-2,2.880354E-1,4.003581E-1,7.02028E-2,2.1117781E-1,2.8694838E1,9.8049685E-2,2.54E2,1.7358067E1,4.9062442E-2,-7.0046596E-2,9.1426015E-1,8.439524E-3,5.9686046E-2,2.3846056E-2,-6.696255E-3,2.3981591E-3,4.436791E-2,6.1326504E-2,-3.5434354E-2,3.0074311E-2,-2.4653317E-2,4.0781964E-3,6.302497E-2,-5.5585593E-2,2.7126139E-2,-4.862945E-3,-6.509965E-2],"split_indices":[1,1,5,0,1,1,6,3,3,0,5,6,6,1,6,6,5,6,4,3,0,0,1,0,0,0,0,0,0,0,0,0,0,0,0,0,0,0,0],"split_type":[0,0,0,0,0,0,0,0,0,0,0,0,0,0,0,0,0,0,0,0,0,0,0,0,0,0,0,0,0,0,0,0,0,0,0,0,0,0,0],"sum_hessian":[3.1048132E2,2.6657938E2,4.3901928E1,5.0529413E0,2.6152646E2,1.209416E1,3.1807768E1,2.1263527E2,4.8891174E1,1.6579427E0,1.0436217E1,4.786321E0,2.7021446E1,1.6275438E1,1.9635983E2,3.934205E1,9.549126E0,5.225284E0,5.210933E0,3.0632503E0,1.7230707E0,1.063469E1,1.6386757E1,7.8690314E0,8.406407E0,3.1652735E1,1.6470709E2,1.4633206E1,2.4708843E1,2.715611E0,6.8335147E0,2.309637E0,2.9156468E0,1.6743617E0,3.5365715E0,1.9131314E0,1.150119E0,1.1151875E1,5.2348824E0],"tree_param":{"num_deleted":"0","num_feature":"7","num_nodes":"39","size_leaf_vector":"1"}},{"base_weights":[-2.8421555E-3,7.4307084E-2,-4.6681216E-1,-6.342103E-2,1.045255E-1,2.4200067E-1,-7.367903E-1,1.2293684E-1,-6.5368645E-2,-4.9738977E-2,5.0777185E-1,1.0295223E-1,-8.842446E-1,4.510221E-2,4.5485437E-1,1.0077076E-2,9.2752135E-1,-4.9454474E-1,4.7966238E-2,-6.8269886E-2,-5.156224E-1,3.7059549E-3,-7.4237026E-2,2.8720161E-2,-2.724247E-3,2.9129941E-2,-2.3752354E-2,3.9510396E-3,6.134517E-2,-5.416463E-2,2.6438966E-2,-4.6425164E-3,-6.344849E-2],"categories":[],"categories_nodes":[],"categories_segments":[],"categories_sizes":[],"default_left":[0,0,0,0,0,0,0,0,0,0,0,0,0,0,0,0,0,0,0,0,0,0,0,0,0,0,0,0,0,0,0,0,0],"id":11,"left_children":[1,3,5,-1,7,9,11,13,-1,-1,15,17,19,21,23,25,27,29,-1,-1,31,-1,-1,-1,-1,-1,-1,-1,-1,-1,-1,-1,-1],"loss_changes":[1.115103E1,1.097189E1,8.677619E0,0E0,6.97623E0,4.779378E0,4.104273E0,6.6893983E0,0E0,0E0,2.3649871E0,3.409845E0,4.2043457E0,9.498757E0,3.0287209E0,2.001812E0,1.4664688E0,3.0062394E0,0E0,0E0,5.3845367E0,0E0,0E0,0E0,0E0,0E0,0E0,0E0,0E0,0E0,0E0,0E0,0E0],"parents":[2147483647,0,0,1,1,2,2,4,4,5,5,6,6,7,7,10,10,11,11,12,12,13,13,14,14,15,15,16,16,17,17,20,20],"right_children":[2,4,6,-1,8,10,12,14,-1,-1,16,18,20,22,24,26,28,30,-1,-1,32,-1,-1,-1,-1,-1,-1,-1,-1,-1,-1,-1,-1],"split_conditions":[8.3451927E-1,2.541582E-2,2.9320728E1,-6.342103E-2,9.8918265E-1,8.6812323E-1,6.63095E-2,7.119328E-1,-6.5368645E-2,-4.9738977E-2,2.4594978E1,5.4330572E-2,2.880354E-1,7.0045644E-1,1.5093589E1,9.8049685E-2,2.54E2,1.7358067E1,4.7966238E-2,-6.8269886E-2,9.1426015E-1,3.7059549E-3,-7.4237026E-2,2.8720161E-2,-2.724247E-3,2.9129941E-2,-2.3752354E-2,3.9510396E-3,6.134517E-2,-5.416463E-2,2.6438966E-2,-4.6425164E-3,-6.344849E-2],"split_indices":[1,1,5,0,0,1,6,1,0,0,5,6,6,1,3,6,4,3,0,0,1,0,0,0,0,0,0,0,0,0,0,0,0],"split_type":[0,0,0,0,0,0,0,0,0,0,0,0,0,0,0,0,0,0,0,0,0,0,0,0,0,0,0,0,0,0,0,0,0],"sum_hessian":[3.0955624E2,2.6614185E2,4.34144E1,4.9558997E0,2.6118594E2,1.2003498E1,3.14109E1,2.5872507E2,2.4608796E0,1.6379976E0,1.03655E1,4.736821E0,2.6674078E1,2.1049896E2,4.8226105E1,5.2109323E0,5.154568E0,3.0390012E0,1.6978201E0,1.0397906E1,1.6276173E1,2.0751454E2,2.9844265E0,3.8955074E1,9.2710285E0,2.298004E0,2.9129286E0,1.6740284E0,3.4805398E0,1.8919222E0,1.147079E0,1.1144965E1,5.1312075E0],"tree_param":{"num_deleted":"0","num_feature":"7","num_nodes":"33","size_leaf_vector":"1"}},{"base_weights":[-3.6130387E-3,7.001021E-2,-4.5103514E-1,-6.1865147E-2,9.8953694E-2,2.3335652E-1,-7.1300685E-1,-4.3056283E-2,2.775923E-1,-4.8593875E-2,4.9204668E-1,1.022765E-1,-8.5658205E-1,1.6190958E-1,-4.400759E-1,-1.8336968E-1,4.5428076E-1,1.0487263E-2,9.0083617E-1,-4.5719054E-2,5.7706076E-1,-6.663591E-2,-4.9728647E-1,-5.197362E-2,1.4857084E-2,2.8032923E-2,-3.3763032E-2,2.5365323E-2,-3.9817978E-2,4.9591478E-2,8.535599E-3,-2.569939E-2,2.6710628E-2,3.8278557E-3,5.9779216E-2,-3.1106295E-3,5.0394148E-2,-5.194519E-3,-6.47527E-2],"categories":[],"categories_nodes":[],"categories_segments":[],"categories_sizes":[],"default_left":[0,0,0,0,0,0,0,0,0,0,0,0,0,0,0,0,0,0,0,0,0,0,0,0,0,0,0,0,0,0,0,0,0,0,0,0,0,0,0],"id":12,"left_children":[1,3,5,-1,7,9,11,13,15,-1,17,19,21,23,25,27,29,31,33,-1,35,-1,37,-1,-1,-1,-1,-1,-1,-1,-1,-1,-1,-1,-1,-1,-1,-1,-1],"loss_changes":[1.0235335E1,1.0219874E1,8.037885E0,0E0,6.658593E0,4.5023E0,3.832964E0,1.2019817E1,9.545088E0,0E0,2.2130363E0,3.271462E0,4.009672E0,1.616055E1,1.2208348E1,1.4334286E1,1.2675953E1,1.9763207E0,1.389164E0,0E0,1.2987301E0,0E0,5.2513356E0,0E0,0E0,0E0,0E0,0E0,0E0,0E0,0E0,0E0,0E0,0E0,0E0,0E0,0E0,0E0,0E0],"parents":[2147483647,0,0,1,1,2,2,4,4,5,5,6,6,7,7,8,8,10,10,11,11,12,12,13,13,14,14,15,15,16,16,17,17,18,18,20,20,22,22],"right_children":[2,4,6,-1,8,10,12,14,16,-1,18,20,22,24,26,28,30,32,34,-1,36,-1,38,-1,-1,-1,-1,-1,-1,-1,-1,-1,-1,-1,-1,-1,-1,-1,-1],"split_conditions":[8.3451927E-1,2.541582E-2,2.9320728E1,-6.1865147E-2,4.4932922E1,8.6812323E-1,6.63095E-2,3.5979877E1,1.58E2,-4.8593875E-2,2.4594978E1,9.4899356E-1,2.880354E-1,1.14537224E-1,5.984493E-2,1.9047661E-1,2.48E2,9.570851E-1,2.54E2,-4.5719054E-2,1.5093589E1,-6.663591E-2,1.1788622E1,-5.197362E-2,1.4857084E-2,2.8032923E-2,-3.3763032E-2,2.5365323E-2,-3.9817978E-2,4.9591478E-2,8.535599E-3,-2.569939E-2,2.6710628E-2,3.8278557E-3,5.9779216E-2,-3.1106295E-3,5.0394148E-2,-5.194519E-3,-6.47527E-2],"split_indices":[1,1,5,0,5,1,6,5,4,0,5,1,6,0,6,6,4,1,4,0,3,0,3,0,0,0,0,0,0,0,0,0,0,0,0,0,0,0,0],"split_type":[0,0,0,0,0,0,0,0,0,0,0,0,0,0,0,0,0,0,0,0,0,0,0,0,0,0,0,0,0,0,0,0,0,0,0,0,0,0,0],"sum_hessian":[3.0876175E2,2.6585834E2,4.2903427E1,4.854238E0,2.610041E2,1.1906736E1,3.0996689E1,1.4583252E2,1.1517158E2,1.6168655E0,1.0289871E1,4.6843762E0,2.6312313E1,9.656957E1,4.9262943E1,3.190276E1,8.326882E1,5.195343E0,5.094528E0,1.196474E0,3.4879024E0,1.01510105E1,1.6161303E1,9.093924E0,8.747565E1,9.110966E0,4.0151978E1,1.5081893E1,1.6820866E1,2.7893906E1,5.5374912E1,2.605103E0,2.5902398E0,1.6736926E0,3.4208355E0,1.7486993E0,1.739203E0,1.1580793E1,4.580509E0],"tree_param":{"num_deleted":"0","num_feature":"7","num_nodes":"39","size_leaf_vector":"1"}},{"base_weights":[-4.0548877E-3,6.638501E-2,-4.360985E-1,-6.0414255E-2,9.413363E-2,2.2456929E-1,-6.9020516E-1,1.1184886E-1,-6.335598E-2,-4.750472E-2,4.7611353E-1,-6.5392755E-2,-4.750586E-1,3.7464947E-2,4.3027687E-1,6.99376E-1,-1.6661093E-2,8.880238E-1,-8.782376E-1,3.6934294E-2,-1.1747609E-3,-2.356098E-2,2.4625449E-2,-4.1973665E-3,4.5836475E-2,-1.6247652E-3,6.609767E-2,-7.074672E-2,-2.0500284E-2],"categories":[],"categories_nodes":[],"categories_segments":[],"categories_sizes":[],"default_left":[0,0,0,0,0,0,0,0,0,0,0,0,0,0,0,0,0,0,0,0,0,0,0,0,0,0,0,0,0],"id":13,"left_children":[1,3,5,-1,7,9,11,13,-1,-1,15,-1,17,19,21,23,-1,25,27,-1,-1,-1,-1,-1,-1,-1,-1,-1,-1],"loss_changes":[9.428945E0,9.537914E0,7.4462233E0,0E0,6.4524508E0,4.2400627E0,3.579503E0,6.1244745E0,0E0,0E0,2.2611797E0,0E0,1.4527817E1,9.047725E0,2.980914E0,1.6297112E0,0E0,2.522501E0,4.3976936E0,0E0,0E0,0E0,0E0,0E0,0E0,0E0,0E0,0E0,0E0],"parents":[2147483647,0,0,1,1,2,2,4,4,5,5,6,6,7,7,10,10,12,12,13,13,14,14,15,15,17,17,18,18],"right_children":[2,4,6,-1,8,10,12,14,-1,-1,16,-1,18,20,22,24,-1,26,28,-1,-1,-1,-1,-1,-1,-1,-1,-1,-1],"split_conditions":[8.3451927E-1,2.541582E-2,2.9320728E1,-6.0414255E-2,9.8918265E-1,8.6812323E-1,2.6126114E-1,7.119328E-1,-6.335598E-2,-4.750472E-2,9.624177E-1,-6.5392755E-2,3.6058053E-1,2.0011704E0,2.5469017E0,2.115525E1,-1.6661093E-2,1.6549607E-1,9.103812E-1,3.6934294E-2,-1.1747609E-3,-2.356098E-2,2.4625449E-2,-4.1973665E-3,4.5836475E-2,-1.6247652E-3,6.609767E-2,-7.074672E-2,-2.0500284E-2],"split_indices":[1,1,5,0,0,1,0,1,0,0,1,0,0,3,3,5,0,6,1,0,0,0,0,0,0,0,0,0,0],"split_type":[0,0,0,0,0,0,0,0,0,0,0,0,0,0,0,0,0,0,0,0,0,0,0,0,0,0,0,0,0],"sum_hessian":[3.07874E2,2.6544284E2,4.243115E1,4.7489614E0,2.6069388E2,1.1818842E1,3.0612309E1,2.5825085E2,2.4430199E0,1.5947264E0,1.0224115E1,6.596358E0,2.401595E1,2.102538E2,4.7997055E1,8.120004E0,2.104112E0,5.207543E0,1.8808407E1,1.5927161E1,1.9432663E2,2.6749964E0,4.532206E1,1.8970337E0,6.22297E0,1.9647415E0,3.2428014E0,7.821445E0,1.0986962E1],"tree_param":{"num_deleted":"0","num_feature":"7","num_nodes":"29","size_leaf_vector":"1"}},{"base_weights":[-4.5529404E-3,4.0256238E-1,-7.858843E-2,-2.2381762E-1,7.729795E-1,-4.8682934E-1,3.8950115E-2,2.5809345E-1,-7.587208E-2,1.2022547E0,1.4881759E-2,7.194319E-1,-6.175881E-1,-4.8867288E-1,1.3094154E-1,-2.3686714E-1,6.363051E-1,1.3694286E0,-1.0776594E-2,-7.648473E-2,8.340004E-1,-4.9462195E-2,6.67304E-2,-3.6098257E-1,-1.2030597E0,1.7145813E-1,-1.031359E0,1.8414475E-1,-9.842244E-1,-6.834235E-2,3.4567382E-2,5.3993143E-2,-5.3588428E-2,2.1103209E-2,7.051032E-2,-1.4723175E-3,5.437842E-2,4.40273E-3,-4.2738654E-2,-7.861202E-2,-2.9800987E-2,6.650802E-2,-1.9410197E-2,-7.526386E-2,1.1334809E-2,-1.4793564E-3,2.0615002E-2,-6.399806E-2,2.268627E-2],"categories":[],"categories_nodes":[],"categories_segments":[],"categories_sizes":[],"default_left":[0,0,0,0,0,0,0,0,0,0,0,0,0,0,0,0,0,0,0,0,0,0,0,0,0,0,0,0,0,0,0,0,0,0,0,0,0,0,0,0,0,0,0,0,0,0,0,0,0],"id":14,"left_children":[1,3,5,7,9,11,13,15,-1,17,19,21,23,25,27,29,31,33,-1,-1,35,-1,-1,37,39,41,43,45,47,-1,-1,-1,-1,-1,-1,-1,-1,-1,-1,-1,-1,-1,-1,-1,-1,-1,-1,-1,-1],"loss_changes":[9.3191395E0,1.1211828E1,1.2569607E1,1.1896887E1,9.784576E0,9.678698E0,9.966121E0,2.827836E0,0E0,4.8503704E0,1.6334599E1,7.8242807E0,7.581997E0,1.1103357E1,1.0535148E1,8.206348E0,7.504594E0,7.419968E-2,0E0,0E0,1.8765926E0,0E0,0E0,8.617886E0,2.6107845E0,9.996218E0,1.040637E1,8.175714E0,4.027129E0,0E0,0E0,0E0,0E0,0E0,0E0,0E0,0E0,0E0,0E0,0E0,0E0,0E0,0E0,0E0,0E0,0E0,0E0,0E0,0E0],"parents":[2147483647,0,0,1,1,2,2,3,3,4,4,5,5,6,6,7,7,9,9,10,10,11,11,12,12,13,13,14,14,15,15,16,16,17,17,20,20,23,23,24,24,25,25,26,26,27,27,28,28],"right_children":[2,4,6,8,10,12,14,16,-1,18,20,22,24,26,28,30,32,34,-1,-1,36,-1,-1,38,40,42,44,46,48,-1,-1,-1,-1,-1,-1,-1,-1,-1,-1,-1,-1,-1,-1,-1,-1,-1,-1,-1,-1],"split_conditions":[7.02028E-2,2.853709E-2,1.27E2,5.7608104E-1,4.9464303E-1,2.1993376E1,1.3882811E-1,2.23E2,-7.587208E-2,8.41776E-1,7.383057E-1,2.115525E1,9.1E1,2.72E2,9.1426015E-1,4.6713028E1,1.1898421E1,2.2317333E0,-1.0776594E-2,-7.648473E-2,3.4770685E-1,-4.9462195E-2,6.67304E-2,5.084958E-1,6.589337E-1,4.538928E0,7.9041E-1,5.3046334E-1,9.9338305E-1,-6.834235E-2,3.4567382E-2,5.3993143E-2,-5.3588428E-2,2.1103209E-2,7.051032E-2,-1.4723175E-3,5.437842E-2,4.40273E-3,-4.2738654E-2,-7.861202E-2,-2.9800987E-2,6.650802E-2,-1.9410197E-2,-7.526386E-2,1.1334809E-2,-1.4793564E-3,2.0615002E-2,-6.399806E-2,2.268627E-2],"split_indices":[6,6,4,0,1,5,0,4,0,0,1,5,4,4,1,5,3,3,0,0,0,0,0,0,1,3,1,1,1,0,0,0,0,0,0,0,0,0,0,0,0,0,0,0,0,0,0,0,0],"split_type":[0,0,0,0,0,0,0,0,0,0,0,0,0,0,0,0,0,0,0,0,0,0,0,0,0,0,0,0,0,0,0,0,0,0,0,0,0,0,0,0,0,0,0,0,0,0,0,0,0],"sum_hessian":[3.0713538E2,4.657665E1,2.6055872E2,1.7455296E1,2.9121353E1,5.7545807E1,2.0301292E2,1.3300846E1,4.154449E0,1.821894E1,1.0902414E1,5.187615E0,5.2358192E1,2.9500229E1,1.735127E2,5.923092E0,7.377754E0,1.6327805E1,1.8911358E0,3.4775188E0,7.424895E0,1.2123102E0,3.9753046E0,3.7527073E1,1.4831121E1,1.3618523E1,1.5881706E1,1.6640842E2,7.10427E0,2.45811E0,3.4649818E0,6.148803E0,1.2289507E0,1.1421953E0,1.5185609E1,1.8861324E0,5.5387626E0,2.0084526E1,1.7442545E1,8.233674E0,6.5974474E0,3.9870896E0,9.6314335E0,1.13932705E1,4.4884367E0,8.636941E1,8.003902E1,5.983534E0,1.120736E0],"tree_param":{"num_deleted":"0","num_feature":"7","num_nodes":"49","size_leaf_vector":"1"}},{"base_weights":[-5.0599086E-3,6.980471E-2,-3.9309266E-1,1.6826956E-2,9.462298E-1,1.7068914E-1,-6.3352776E-1,-5.8680266E-2,4.4544287E-2,1.0698282E0,-1.2493985E-3,-4.3322468E-1,7.0857006E-1,-3.4265876E-1,-1.1429982E0,6.652434E-2,-6.502419E-2,2.3750009E-1,1.2699827E0,1.7442292E-1,-6.5921776E-2,2.3226035E-1,5.7063617E-2,-9.72541E-1,1.2238132E-2,-6.976757E-2,1.6211394E-2,-3.4644004E-2,4.970426E-3,3.0427707E-2,-8.421807E-3,1.7312E-2,6.7141645E-2,-2.9318273E-2,5.646474E-2,3.8069155E-2,-1.5530867E-2,2.5410483E-2,-6.3703254E-2,7.056955E-2,-1.3416289E-2],"categories":[],"categories_nodes":[],"categories_segments":[],"categories_sizes":[],"default_left":[0,0,0,0,0,0,0,0,0,0,0,0,0,0,0,0,0,0,0,0,0,0,0,0,0,0,0,0,0,0,0,0,0,0,0,0,0,0,0,0,0],"id":15,"left_children":[1,3,5,7,9,11,13,-1,15,17,-1,19,21,23,25,27,-1,29,31,33,-1,35,-1,37,39,-1,-1,-1,-1,-1,-1,-1,-1,-1,-1,-1,-1,-1,-1,-1,-1],"loss_changes":[8.950051E0,1.1978216E1,6.8621845E0,8.123493E0,1.792141E0,5.401698E0,4.815975E0,0E0,7.182189E0,1.875639E0,0E0,4.538032E0,1.5228481E0,5.331849E0,5.0227127E0,5.989947E0,0E0,6.69392E-1,2.2857285E-1,4.7537727E0,0E0,1.7833142E0,0E0,4.4822826E0,6.741735E0,0E0,0E0,0E0,0E0,0E0,0E0,0E0,0E0,0E0,0E0,0E0,0E0,0E0,0E0,0E0,0E0],"parents":[2147483647,0,0,1,1,2,2,3,3,4,4,5,5,6,6,8,8,9,9,11,11,12,12,13,13,14,14,15,15,17,17,18,18,19,19,21,21,23,23,24,24],"right_children":[2,4,6,8,10,12,14,-1,16,18,-1,20,22,24,26,28,-1,30,32,34,-1,36,-1,38,40,-1,-1,-1,-1,-1,-1,-1,-1,-1,-1,-1,-1,-1,-1,-1,-1],"split_conditions":[8.129325E-1,7.9041E-1,2.9578535E1,2.541582E-2,4.516281E-1,2.4594978E1,6.6688865E-1,-5.8680266E-2,9.8541224E-1,1.3801567E-1,-1.2493985E-3,2.1562021E1,2.54E2,2.6126114E-1,9.736903E-1,3.4615256E-2,-6.502419E-2,2.0011704E0,2.1459019E1,9.570851E-1,-6.5921776E-2,3.868212E0,5.7063617E-2,8.289793E-1,2.92567E-1,-6.976757E-2,1.6211394E-2,-3.4644004E-2,4.970426E-3,3.0427707E-2,-8.421807E-3,1.7312E-2,6.7141645E-2,-2.9318273E-2,5.646474E-2,3.8069155E-2,-1.5530867E-2,2.5410483E-2,-6.3703254E-2,7.056955E-2,-1.3416289E-2],"split_indices":[1,1,5,1,6,5,0,0,0,6,0,5,4,0,0,0,0,3,5,1,0,3,0,1,0,0,0,0,0,0,0,0,0,0,0,0,0,0,0,0,0],"split_type":[0,0,0,0,0,0,0,0,0,0,0,0,0,0,0,0,0,0,0,0,0,0,0,0,0,0,0,0,0,0,0,0,0,0,0,0,0,0,0,0,0],"sum_hessian":[3.061475E2,2.5732156E2,4.8825912E1,2.4361484E2,1.3706722E1,1.468411E1,3.4141804E1,4.602444E0,2.3901239E2,1.2069243E1,1.6374792E0,7.0091047E0,7.675005E0,2.2798288E1,1.1343516E1,2.3610458E2,2.9078107E0,2.7635996E0,9.305644E0,4.63227E0,2.3768349E0,4.3849306E0,3.2900743E0,7.5889072E0,1.5209381E1,9.72062E0,1.622896E0,8.966568E0,2.2713802E2,1.1830614E0,1.5805382E0,1.100757E0,8.204886E0,2.7929366E0,1.839333E0,2.0167675E0,2.368163E0,1.1679188E0,6.4209886E0,1.8672054E0,1.33421755E1],"tree_param":{"num_deleted":"0","num_feature":"7","num_nodes":"41","size_leaf_vector":"1"}},{"base_weights":[-4.991361E-3,3.847646E-1,-7.55149E-2,-2.2012168E-1,7.438169E-1,-4.6393293E-1,3.591921E-2,2.4430862E-1,-7.3303424E-2,1.1572663E0,1.4358673E-2,6.8272656E-1,-5.8834445E-1,3.1000888E-1,-1.3100028E-1,-2.2936495E-1,6.0798234E-1,1.3211042E0,-1.0581493E-2,-7.372145E-2,8.115063E-1,-4.829527E-2,6.394505E-2,-3.4046E-1,-1.1564393E0,-7.313775E-2,4.1443864E-1,-1.0591501E0,2.0975662E-2,-6.60474E-2,3.3406716E-2,5.207162E-2,-5.2253634E-2,2.04685E-2,6.8016686E-2,-1.2041756E-3,5.297748E-2,-2.495453E-2,4.821865E-2,-7.603201E-2,-2.8144414E-2,2.3957964E-2,-5.1193774E-2,-3.625283E-3,-7.567956E-2,-4.3897886E-2,8.075985E-3],"categories":[],"categories_nodes":[],"categories_segments":[],"categories_sizes":[],"default_left":[0,0,0,0,0,0,0,0,0,0,0,0,0,0,0,0,0,0,0,0,0,0,0,0,0,0,0,0,0,0,0,0,0,0,0,0,0,0,0,0,0,0,0,0,0,0,0],"id":16,"left_children":[1,3,5,7,9,11,13,15,-1,17,19,21,23,25,27,29,31,33,-1,-1,35,-1,-1,37,39,-1,41,43,45,-1,-1,-1,-1,-1,-1,-1,-1,-1,-1,-1,-1,-1,-1,-1,-1,-1,-1],"loss_changes":[8.448993E0,1.0392923E1,1.12800255E1,1.0956377E1,8.965933E0,8.687961E0,9.334488E0,2.5854292E0,0E0,4.540121E0,1.5184936E1,7.2781916E0,7.060953E0,1.4895372E1,1.7930191E1,7.6356053E0,7.0398545E0,5.4880142E-2,0E0,0E0,1.7502632E0,0E0,0E0,8.403208E0,2.5302353E0,0E0,7.348445E0,7.908224E0,1.4048486E1,0E0,0E0,0E0,0E0,0E0,0E0,0E0,0E0,0E0,0E0,0E0,0E0,0E0,0E0,0E0,0E0,0E0,0E0],"parents":[2147483647,0,0,1,1,2,2,3,3,4,4,5,5,6,6,7,7,9,9,10,10,11,11,12,12,13,13,14,14,15,15,16,16,17,17,20,20,23,23,24,24,26,26,27,27,28,28],"right_children":[2,4,6,8,10,12,14,16,-1,18,20,22,24,26,28,30,32,34,-1,-1,36,-1,-1,38,40,-1,42,44,46,-1,-1,-1,-1,-1,-1,-1,-1,-1,-1,-1,-1,-1,-1,-1,-1,-1,-1],"split_conditions":[7.02028E-2,2.853709E-2,1.27E2,5.7608104E-1,4.9464303E-1,2.1993376E1,2.5E2,2.23E2,-7.3303424E-2,8.41776E-1,7.383057E-1,2.115525E1,9.1E1,1.0379308E-1,2.9E2,4.6713028E1,1.1898421E1,2.2317333E0,-1.0581493E-2,-7.372145E-2,3.4770685E-1,-4.829527E-2,6.394505E-2,8.9E1,6.589337E-1,-7.313775E-2,9.122199E-1,5.8418403E0,1.3537304E-1,-6.60474E-2,3.3406716E-2,5.207162E-2,-5.2253634E-2,2.04685E-2,6.8016686E-2,-1.2041756E-3,5.297748E-2,-2.495453E-2,4.821865E-2,-7.603201E-2,-2.8144414E-2,2.3957964E-2,-5.1193774E-2,-3.625283E-3,-7.567956E-2,-4.3897886E-2,8.075985E-3],"split_indices":[6,6,4,0,1,5,4,4,0,0,1,5,4,6,4,5,3,3,0,0,0,0,0,4,1,0,1,3,0,0,0,0,0,0,0,0,0,0,0,0,0,0,0,0,0,0,0],"split_type":[0,0,0,0,0,0,0,0,0,0,0,0,0,0,0,0,0,0,0,0,0,0,0,0,0,0,0,0,0,0,0,0,0,0,0,0,0,0,0,0,0,0,0,0,0,0,0],"sum_hessian":[3.053247E2,4.609881E1,2.592259E2,1.7315226E1,2.8783583E1,5.7085094E1,2.0214081E2,1.3199128E1,4.116097E0,1.7996742E1,1.0786841E1,5.1481996E0,5.1936893E1,7.61847E1,1.259561E2,5.892997E0,7.306132E0,1.6104204E1,1.8925372E0,3.4652874E0,7.321553E0,1.2025509E0,3.9456484E0,3.727256E1,1.4664333E1,3.5146215E0,7.267008E1,1.6882408E1,1.0907369E2,2.4461083E0,3.4468884E0,6.0814905E0,1.2246414E0,1.1360673E0,1.4968138E1,1.8825768E0,5.438977E0,3.3783016E1,3.489547E0,8.119995E0,6.5443373E0,7.0179054E1,2.4910262E0,5.6894665E0,1.1192942E1,1.4038057E1,9.503564E1],"tree_param":{"num_deleted":"0","num_feature":"7","num_nodes":"47","size_leaf_vector":"1"}},{"base_weights":[-5.8377064E-3,6.553478E-2,-3.7972578E-1,1.4933351E-2,9.1057587E-1,1.616325E-1,-6.115244E-1,-5.7160277E-2,4.128786E-2,1.0311191E0,-1.2178844E-3,-4.2008463E-1,6.8339777E-1,-3.3012706E-1,-1.1086624E0,6.220839E-2,-6.2517606E-2,2.2735095E-1,1.2265999E0,1.6851382E-1,-6.375101E-2,2.1587771E-1,5.5702664E-2,-9.4197774E-1,7.0828637E-3,-6.791184E-2,1.541808E-2,4.2938538E-2,1.5639717E-3,3.0087588E-2,-8.949631E-3,1.6336752E-2,6.493489E-2,-2.838477E-2,5.4694593E-2,3.6037628E-2,-1.4781016E-2,2.3793707E-2,-6.178368E-2,6.726684E-2,-1.31574785E-2],"categories":[],"categories_nodes":[],"categories_segments":[],"categories_sizes":[],"default_left":[0,0,0,0,0,0,0,0,0,0,0,0,0,0,0,0,0,0,0,0,0,0,0,0,0,0,0,0,0,0,0,0,0,0,0,0,0,0,0,0,0],"id":17,"left_children":[1,3,5,7,9,11,13,-1,15,17,-1,19,21,23,25,27,-1,29,31,33,-1,35,-1,37,39,-1,-1,-1,-1,-1,-1,-1,-1,-1,-1,-1,-1,-1,-1,-1,-1],"loss_changes":[8.173062E0,1.098654E1,6.259178E0,7.486492E0,1.6612186E0,4.994389E0,4.4718914E0,0E0,6.543453E0,1.7452364E0,0E0,4.2166843E0,1.48227E0,4.8566895E0,4.689434E0,5.797658E0,0E0,6.778643E-1,2.3319435E-1,4.4314632E0,0E0,1.5928619E0,0E0,4.0691557E0,6.193526E0,0E0,0E0,0E0,0E0,0E0,0E0,0E0,0E0,0E0,0E0,0E0,0E0,0E0,0E0,0E0,0E0],"parents":[2147483647,0,0,1,1,2,2,3,3,4,4,5,5,6,6,8,8,9,9,11,11,12,12,13,13,14,14,15,15,17,17,18,18,19,19,21,21,23,23,24,24],"right_children":[2,4,6,8,10,12,14,-1,16,18,-1,20,22,24,26,28,-1,30,32,34,-1,36,-1,38,40,-1,-1,-1,-1,-1,-1,-1,-1,-1,-1,-1,-1,-1,-1,-1,-1],"split_conditions":[8.129325E-1,7.9041E-1,2.9578535E1,2.541582E-2,4.516281E-1,2.4594978E1,6.6688865E-1,-5.7160277E-2,9.8541224E-1,1.3801567E-1,-1.2178844E-3,2.1562021E1,2.54E2,2.6126114E-1,9.736903E-1,1.4517906E0,-6.2517606E-2,2.0011704E0,2.1459019E1,9.570851E-1,-6.375101E-2,3.868212E0,5.5702664E-2,8.289793E-1,2.92567E-1,-6.791184E-2,1.541808E-2,4.2938538E-2,1.5639717E-3,3.0087588E-2,-8.949631E-3,1.6336752E-2,6.493489E-2,-2.838477E-2,5.4694593E-2,3.6037628E-2,-1.4781016E-2,2.3793707E-2,-6.178368E-2,6.726684E-2,-1.31574785E-2],"split_indices":[1,1,5,1,6,5,0,0,0,6,0,5,4,0,0,3,0,3,5,1,0,3,0,1,0,0,0,0,0,0,0,0,0,0,0,0,0,0,0,0,0],"split_type":[0,0,0,0,0,0,0,0,0,0,0,0,0,0,0,0,0,0,0,0,0,0,0,0,0,0,0,0,0,0,0,0,0,0,0,0,0,0,0,0,0],"sum_hessian":[3.0434305E2,2.562513E2,4.8091766E1,2.4273395E2,1.3517343E1,1.450905E1,3.3582714E1,4.457841E0,2.3827611E2,1.1882432E1,1.6349101E0,6.952534E0,7.5565157E0,2.2507017E1,1.1075698E1,2.3541496E2,2.8611493E0,2.7476838E0,9.134748E0,4.5931654E0,2.3593686E0,4.343013E0,3.213503E0,7.3597217E0,1.5147296E1,9.452377E0,1.6233206E0,7.7986298E0,2.2761633E2,1.1797656E0,1.5679181E0,1.0879304E0,8.046818E0,2.7733104E0,1.8198552E0,1.9797736E0,2.3632393E0,1.1564627E0,6.203259E0,1.8764142E0,1.3270882E1],"tree_param":{"num_deleted":"0","num_feature":"7","num_nodes":"41","size_leaf_vector":"1"}},{"base_weights":[-5.4963217E-3,3.6883703E-1,-7.279503E-2,-2.1688281E-1,7.176978E-1,-4.522126E-1,2.997194E-2,2.307431E-1,-7.0889294E-2,1.116732E0,1.4163618E-2,6.4924884E-1,-5.771615E-1,1.0455691E0,-1.2444375E-2,8.675664E-1,-3.8097523E-2,1.2775278E0,-1.02788005E-2,-7.122428E-2,7.9068947E-1,-4.7325727E-2,6.1509352E-2,-3.1874618E-1,-1.2828586E0,1.1430508E0,1.5401247E-2,2.579786E-1,-1.8438481E-1,5.4919254E-2,1.1790547E-2,-4.141713E-2,2.5270393E-2,1.9934744E-2,6.576766E-2,-6.5383473E-3,5.007544E-2,-2.3547607E-2,4.628295E-2,-7.561792E-2,-3.8680702E-3,2.586613E-2,6.6745654E-2,-7.057021E-2,1.7777605E-2,-5.0403275E-2,-2.1110934E-3],"categories":[],"categories_nodes":[],"categories_segments":[],"categories_sizes":[],"default_left":[0,0,0,0,0,0,0,0,0,0,0,0,0,0,0,0,0,0,0,0,0,0,0,0,0,0,0,0,0,0,0,0,0,0,0,0,0,0,0,0,0,0,0,0,0,0,0],"id":18,"left_children":[1,3,5,7,9,11,13,15,-1,17,19,21,23,25,27,29,31,33,-1,-1,35,-1,-1,37,39,41,-1,43,45,-1,-1,-1,-1,-1,-1,-1,-1,-1,-1,-1,-1,-1,-1,-1,-1,-1,-1],"loss_changes":[7.696477E0,9.669096E0,1.0107971E1,1.0082255E1,8.24084E0,7.9769554E0,8.82885E0,2.4435518E0,0E0,4.2501106E0,1.4148989E1,6.8178287E0,8.734737E0,2.3863506E-1,9.227518E0,3.5657668E-1,5.0822573E0,3.6010742E-2,0E0,0E0,1.7265754E0,0E0,0E0,7.6392784E0,3.5096397E0,1.3637161E-1,0E0,1.3069588E1,1.4158531E1,0E0,0E0,0E0,0E0,0E0,0E0,0E0,0E0,0E0,0E0,0E0,0E0,0E0,0E0,0E0,0E0,0E0,0E0],"parents":[2147483647,0,0,1,1,2,2,3,3,4,4,5,5,6,6,7,7,9,9,10,10,11,11,12,12,13,13,14,14,15,15,16,16,17,17,20,20,23,23,24,24,25,25,27,27,28,28],"right_children":[2,4,6,8,10,12,14,16,-1,18,20,22,24,26,28,30,32,34,-1,-1,36,-1,-1,38,40,42,-1,44,46,-1,-1,-1,-1,-1,-1,-1,-1,-1,-1,-1,-1,-1,-1,-1,-1,-1,-1],"split_conditions":[7.02028E-2,2.853709E-2,1.25E2,5.7608104E-1,4.9464303E-1,2.1993376E1,1.3979961E0,1.6339365E-1,-7.0889294E-2,8.41776E-1,7.383057E-1,2.115525E1,9.1E1,6.6688865E-1,2.5E2,1.1898421E1,2.1E2,2.2317333E0,-1.02788005E-2,-7.122428E-2,4.3523766E-2,-4.7325727E-2,6.1509352E-2,8.9E1,5.4823982E1,2.0027946E-1,1.5401247E-2,1.0379308E-1,2.9E2,5.4919254E-2,1.1790547E-2,-4.141713E-2,2.5270393E-2,1.9934744E-2,6.576766E-2,-6.5383473E-3,5.007544E-2,-2.3547607E-2,4.628295E-2,-7.561792E-2,-3.8680702E-3,2.586613E-2,6.6745654E-2,-7.057021E-2,1.7777605E-2,-5.0403275E-2,-2.1110934E-3],"split_indices":[6,6,4,0,1,5,3,1,0,0,1,5,4,0,4,3,4,3,0,0,6,0,0,4,5,0,0,6,4,0,0,0,0,0,0,0,0,0,0,0,0,0,0,0,0,0,0],"split_type":[0,0,0,0,0,0,0,0,0,0,0,0,0,0,0,0,0,0,0,0,0,0,0,0,0,0,0,0,0,0,0,0,0,0,0,0,0,0,0,0,0,0,0,0,0,0,0],"sum_hessian":[3.0344513E2,4.5558117E1,2.57887E2,1.7147175E1,2.8410942E1,5.4238194E1,2.036488E2,1.3079695E1,4.067481E0,1.7753883E1,1.0657058E1,5.098377E0,4.9139816E1,7.21624E0,1.9643257E2,3.2215345E0,9.85816E0,1.5859229E1,1.8946551E0,3.443304E0,7.213754E0,1.1927524E0,3.9056246E0,3.703123E1,1.2108586E1,5.8881874E0,1.3280525E0,7.615608E1,1.2027648E2,1.8185015E0,1.403033E0,3.8036547E0,6.054506E0,1.130629E0,1.47286005E1,1.4138354E0,5.7999187E0,3.354929E1,3.4819427E0,9.958214E0,2.1503725E0,2.249177E0,3.6390104E0,3.4618762E0,7.269421E1,1.6807024E1,1.0346946E2],"tree_param":{"num_deleted":"0","num_feature":"7","num_nodes":"47","size_leaf_vector":"1"}},{"base_weights":[-5.2742963E-3,6.325435E-2,-3.6803958E-1,1.5019287E-2,8.766193E-1,2.4249297E-1,-5.579724E-1,-5.5647403E-2,4.0023074E-2,9.942755E-1,-1.1142871E-3,4.9413797E-1,-4.7515605E-2,-6.777221E-2,-2.6767713E-1,5.9957873E-2,-6.02504E-2,2.0619619E-1,1.1893388E0,-4.741398E-2,5.078415E-2,-2.3268616E-2,-6.363978E-2,3.0032827E-2,8.709674E-4,2.8716946E-2,-9.362103E-3,1.5535246E-2,6.3043855E-2,3.6717564E-2,-2.9336987E-2,1.4930069E-2,-4.726269E-2],"categories":[],"categories_nodes":[],"categories_segments":[],"categories_sizes":[],"default_left":[0,0,0,0,0,0,0,0,0,0,0,0,0,0,0,0,0,0,0,0,0,0,0,0,0,0,0,0,0,0,0,0,0],"id":19,"left_children":[1,3,5,7,9,11,13,-1,15,17,-1,19,-1,-1,21,23,-1,25,27,29,-1,31,-1,-1,-1,-1,-1,-1,-1,-1,-1,-1,-1],"loss_changes":[7.568087E0,1.0035312E1,5.7441926E0,6.8924494E0,1.5367994E0,4.1237693E0,8.247932E0,0E0,5.991776E0,1.7048674E0,0E0,3.073411E0,0E0,0E0,6.9753227E0,5.410703E0,0E0,6.4731556E-1,2.342186E-1,3.0492177E0,0E0,7.391402E0,0E0,0E0,0E0,0E0,0E0,0E0,0E0,0E0,0E0,0E0,0E0],"parents":[2147483647,0,0,1,1,2,2,3,3,4,4,5,5,6,6,8,8,9,9,11,11,14,14,15,15,17,17,18,18,19,19,21,21],"right_children":[2,4,6,8,10,12,14,-1,16,18,-1,20,-1,-1,22,24,-1,26,28,30,-1,32,-1,-1,-1,-1,-1,-1,-1,-1,-1,-1,-1],"split_conditions":[8.129325E-1,7.9041E-1,1.0379308E-1,2.541582E-2,4.516281E-1,9.779622E-1,2.4539478E-1,-5.5647403E-2,9.8541224E-1,1.3801567E-1,-1.1142871E-3,9.570851E-1,-4.7515605E-2,-6.777221E-2,4.8435463E1,2.0011704E0,-6.02504E-2,2.0011704E0,2.1459019E1,8.3451927E-1,5.078415E-2,1.49535265E1,-6.363978E-2,3.0032827E-2,8.709674E-4,2.8716946E-2,-9.362103E-3,1.5535246E-2,6.3043855E-2,3.6717564E-2,-2.9336987E-2,1.4930069E-2,-4.726269E-2],"split_indices":[1,1,6,1,6,1,6,0,0,6,0,1,0,0,5,3,0,3,5,1,0,3,0,0,0,0,0,0,0,0,0,0,0],"split_type":[0,0,0,0,0,0,0,0,0,0,0,0,0,0,0,0,0,0,0,0,0,0,0,0,0,0,0,0,0,0,0,0,0],"sum_hessian":[3.0249414E2,2.5512505E2,4.736909E1,2.418038E2,1.3321248E1,1.1173981E1,3.619511E1,4.3002515E0,2.3750354E2,1.1685637E1,1.6356105E0,9.710996E0,1.4629854E0,8.680278E0,2.7514833E1,2.3469753E2,2.806015E0,2.7266624E0,8.958975E0,5.21011E0,4.5008855E0,2.295593E1,4.5589027E0,1.6160784E1,2.1853674E2,1.1710805E0,1.5555819E0,1.0768076E0,7.8821673E0,1.9793646E0,3.2307453E0,1.751684E1,5.439091E0],"tree_param":{"num_deleted":"0","num_feature":"7","num_nodes":"33","size_leaf_vector":"1"}},{"base_weights":[-5.5196867E-3,6.0236253E-2,-3.5643023E-1,1.3918583E-2,8.492185E-1,1.5618522E-1,-5.7845646E-1,-5.456357E-2,3.7917875E-2,9.6464735E-1,-1.0796202E-3,-4.0676892E-1,6.6266066E-1,-3.0685848E-1,-1.0642977E0,5.7115458E-2,-5.8677025E-2,6.5808E-2,4.5060843E-1,-6.1361898E-2,1.5925592E-1,2.0294571E-1,5.445856E-2,-9.076829E-1,1.6489284E-2,-6.563882E-2,1.4736577E-2,-3.8780656E-3,1.1374196E-2,-2.7826725E-2,5.0452627E-2,3.669563E-2,-1.8544206E-2,3.3922363E-2,-1.3682975E-2,2.1932798E-2,-5.9595346E-2,6.398851E-2,-1.2171891E-2],"categories":[],"categories_nodes":[],"categories_segments":[],"categories_sizes":[],"default_left":[0,0,0,0,0,0,0,0,0,0,0,0,0,0,0,0,0,0,0,0,0,0,0,0,0,0,0,0,0,0,0,0,0,0,0,0,0,0,0],"id":20,"left_children":[1,3,5,7,9,11,13,-1,15,17,-1,19,21,23,25,27,-1,-1,29,-1,31,33,-1,35,37,-1,-1,-1,-1,-1,-1,-1,-1,-1,-1,-1,-1,-1,-1],"loss_changes":[7.0047326E0,9.333709E0,5.542673E0,6.4752765E0,1.44454E0,4.6221156E0,4.112323E0,0E0,5.611091E0,1.6706419E0,0E0,3.8407223E0,1.4291613E0,4.479931E0,4.3234625E0,5.423795E0,0E0,0E0,4.278373E0,0E0,1.9569169E0,1.3821304E0,0E0,3.6066995E0,5.540262E0,0E0,0E0,0E0,0E0,0E0,0E0,0E0,0E0,0E0,0E0,0E0,0E0,0E0,0E0],"parents":[2147483647,0,0,1,1,2,2,3,3,4,4,5,5,6,6,8,8,9,9,11,11,12,12,13,13,14,14,15,15,18,18,20,20,21,21,23,23,24,24],"right_children":[2,4,6,8,10,12,14,-1,16,18,-1,20,22,24,26,28,-1,-1,30,-1,32,34,-1,36,38,-1,-1,-1,-1,-1,-1,-1,-1,-1,-1,-1,-1,-1,-1],"split_conditions":[8.129325E-1,7.9041E-1,2.9578535E1,2.541582E-2,4.516281E-1,2.4594978E1,6.6688865E-1,-5.456357E-2,9.8541224E-1,3.997734E-1,-1.0796202E-3,8.8158196E-1,2.54E2,2.6126114E-1,9.736903E-1,4.4932922E1,-5.8677025E-2,6.5808E-2,7.086101E-1,-6.1361898E-2,9.8049685E-2,3.868212E0,5.445856E-2,8.289793E-1,2.92567E-1,-6.563882E-2,1.4736577E-2,-3.8780656E-3,1.1374196E-2,-2.7826725E-2,5.0452627E-2,3.669563E-2,-1.8544206E-2,3.3922363E-2,-1.3682975E-2,2.1932798E-2,-5.9595346E-2,6.398851E-2,-1.2171891E-2],"split_indices":[1,1,5,1,6,5,0,0,0,0,0,1,4,0,0,5,0,0,0,0,6,3,0,1,0,0,0,0,0,0,0,0,0,0,0,0,0,0,0],"split_type":[0,0,0,0,0,0,0,0,0,0,0,0,0,0,0,0,0,0,0,0,0,0,0,0,0,0,0,0,0,0,0,0,0,0,0,0,0,0,0],"sum_hessian":[3.0164044E2,2.5473488E2,4.6905563E1,2.4157095E2,1.3163925E1,1.4265603E1,3.263996E1,4.189076E0,2.3738187E2,1.1528082E1,1.6358429E0,6.8493376E0,7.4162655E0,2.1982672E1,1.0657289E1,2.3461684E2,2.7650418E0,5.919649E0,5.608433E0,2.3192906E0,4.530047E0,4.2794657E0,3.1368E0,7.058979E0,1.4923692E1,9.038724E0,1.6185645E0,1.3133827E2,1.0327856E2,2.001745E0,3.606688E0,1.9893132E0,2.5407338E0,1.930218E0,2.3492475E0,1.1357422E0,5.923237E0,1.87711E0,1.3046582E1],"tree_param":{"num_deleted":"0","num_feature":"7","num_nodes":"39","size_leaf_vector":"1"}},{"base_weights":[-5.368433E-3,7.538718E-1,-3.4760248E-2,9.9597263E-1,-1.1780375E-2,3.2937944E-2,-4.0694696E-1,-1.8217483E-3,1.2591218E0,-1.4364226E-2,8.2292956E-1,-5.142424E-1,7.396199E-1,1.6276097E-2,6.836208E-2,-5.3534158E-2,8.979574E-3,9.3629867E-1,-1.0460251E-3,2.9845706E-1,-7.01211E-1,5.3923458E-2,2.9784222E-3,-6.609035E-3,9.221983E-3,8.8206185E-3,5.656705E-2,-4.844674E-2,3.1610943E-2,-5.4861974E-2,-1.9281974E-2],"categories":[],"categories_nodes":[],"categories_segments":[],"categories_sizes":[],"default_left":[0,0,0,0,0,0,0,0,0,0,0,0,0,0,0,0,0,0,0,0,0,0,0,0,0,0,0,0,0,0,0],"id":21,"left_children":[1,3,5,7,-1,9,11,-1,13,15,17,19,21,-1,-1,-1,23,25,-1,27,29,-1,-1,-1,-1,-1,-1,-1,-1,-1,-1],"loss_changes":[6.7586174E0,2.9387374E0,7.35575E0,2.561695E0,0E0,9.259841E0,5.9067183E0,0E0,3.026514E-1,5.7916474E0,1.3587751E0,6.540677E0,9.1607213E-1,0E0,0E0,0E0,5.7310805E0,1.6326494E0,0E0,4.2058563E0,3.8476734E0,0E0,0E0,0E0,0E0,0E0,0E0,0E0,0E0,0E0,0E0],"parents":[2147483647,0,0,1,1,2,2,3,3,5,5,6,6,8,8,9,9,10,10,11,11,12,12,16,16,17,17,19,19,20,20],"right_children":[2,4,6,8,-1,10,12,-1,14,16,18,20,22,-1,-1,-1,24,26,-1,28,30,-1,-1,-1,-1,-1,-1,-1,-1,-1,-1],"split_conditions":[1.4517906E0,6.6688865E-1,8.129325E-1,2.08E2,-1.1780375E-2,7.9041E-1,4.8120365E-1,-1.8217483E-3,1E0,2.541582E-2,4.516281E-1,6.63095E-2,8.50027E-1,1.6276097E-2,6.836208E-2,-5.3534158E-2,4.4932922E1,1.3801567E-1,-1.0460251E-3,3.4770685E-1,8.7712485E-1,5.3923458E-2,2.9784222E-3,-6.609035E-3,9.221983E-3,8.8206185E-3,5.656705E-2,-4.844674E-2,3.1610943E-2,-5.4861974E-2,-1.9281974E-2],"split_indices":[3,0,1,4,0,1,6,0,2,1,6,6,1,0,0,0,5,6,0,0,1,0,0,0,0,0,0,0,0,0,0],"split_type":[0,0,0,0,0,0,0,0,0,0,0,0,0,0,0,0,0,0,0,0,0,0,0,0,0,0,0,0,0,0,0],"sum_hessian":[3.0069293E2,1.028798E1,2.9040494E2,8.260323E0,2.0276573E0,2.4648291E2,4.392204E1,1.8528025E0,6.4075203E0,2.3348444E2,1.2998485E1,4.0667843E1,3.254194E0,1.0813096E0,5.326211E0,4.0781946E0,2.2940623E2,1.1362416E1,1.6360675E0,7.494606E0,3.3173237E1,1.7809408E0,1.4732533E0,1.2726572E2,1.0214052E2,2.7097383E0,8.6526785E0,1.1655595E0,6.3290462E0,1.3612786E1,1.9560452E1],"tree_param":{"num_deleted":"0","num_feature":"7","num_nodes":"31","size_leaf_vector":"1"}},{"base_weights":[-4.9428954E-3,3.420868E-1,-6.6957965E-2,-2.1733229E-1,6.792851E-1,-4.1991568E-1,2.8115345E-2,2.150959E-1,-6.8920545E-2,1.0731527E0,-1.9049728E-2,6.393689E-1,-5.4121804E-1,-4.5541707E-1,1.11359686E-1,8.3810455E-1,-4.740537E-2,1.2325929E0,-1.0524388E-2,-6.8908386E-2,7.351788E-1,-4.5964357E-2,6.0158014E-2,-2.9048076E-1,-1.2341274E0,1.5370187E-1,-9.628981E-1,1.5456389E-1,-8.837535E-1,5.3397667E-2,1.1009789E-2,-4.0618047E-2,2.4109114E-2,1.8947883E-2,6.3499846E-2,-2.5941753E-3,4.9101587E-2,6.2787975E-3,-3.8034316E-2,-7.2942056E-2,-3.9350567E-3,6.3930534E-2,-1.9592993E-2,-6.935213E-2,1.1460821E-2,-2.9147023E-3,1.922146E-2,-5.825585E-2,2.0255607E-2],"categories":[],"categories_nodes":[],"categories_segments":[],"categories_sizes":[],"default_left":[0,0,0,0,0,0,0,0,0,0,0,0,0,0,0,0,0,0,0,0,0,0,0,0,0,0,0,0,0,0,0,0,0,0,0,0,0,0,0,0,0,0,0,0,0,0,0,0,0],"id":22,"left_children":[1,3,5,7,9,11,13,15,-1,17,19,21,23,25,27,29,31,33,-1,-1,35,-1,-1,37,39,41,43,45,47,-1,-1,-1,-1,-1,-1,-1,-1,-1,-1,-1,-1,-1,-1,-1,-1,-1,-1,-1,-1],"loss_changes":[6.4989877E0,8.784433E0,8.606807E0,9.322255E0,7.944433E0,7.337984E0,8.210375E0,2.3233051E0,0E0,4.0329323E0,1.2670102E1,6.4220057E0,8.21815E0,9.412305E0,7.606534E0,3.6033225E-1,4.754958E0,4.7037125E-2,0E0,0E0,1.5985303E0,0E0,0E0,7.44273E0,3.2109337E0,9.389651E0,8.654139E0,8.21155E0,3.147727E0,0E0,0E0,0E0,0E0,0E0,0E0,0E0,0E0,0E0,0E0,0E0,0E0,0E0,0E0,0E0,0E0,0E0,0E0,0E0,0E0],"parents":[2147483647,0,0,1,1,2,2,3,3,4,4,5,5,6,6,7,7,9,9,10,10,11,11,12,12,13,13,14,14,15,15,16,16,17,17,20,20,23,23,24,24,25,25,26,26,27,27,28,28],"right_children":[2,4,6,8,10,12,14,16,-1,18,20,22,24,26,28,30,32,34,-1,-1,36,-1,-1,38,40,42,44,46,48,-1,-1,-1,-1,-1,-1,-1,-1,-1,-1,-1,-1,-1,-1,-1,-1,-1,-1,-1,-1],"split_conditions":[7.02028E-2,2.853709E-2,1.25E2,5.7608104E-1,4.9464303E-1,2.1993376E1,1.3882811E-1,1.6339365E-1,-6.8920545E-2,8.41776E-1,7.383057E-1,2.115525E1,9.1E1,2.72E2,9.1426015E-1,1.1898421E1,2.1E2,2.2317333E0,-1.0524388E-2,-6.8908386E-2,3.4770685E-1,-4.5964357E-2,6.0158014E-2,5.084958E-1,5.4823982E1,4.538928E0,7.9041E-1,5.3046334E-1,9.9338305E-1,5.3397667E-2,1.1009789E-2,-4.0618047E-2,2.4109114E-2,1.8947883E-2,6.3499846E-2,-2.5941753E-3,4.9101587E-2,6.2787975E-3,-3.8034316E-2,-7.2942056E-2,-3.9350567E-3,6.3930534E-2,-1.9592993E-2,-6.935213E-2,1.1460821E-2,-2.9147023E-3,1.922146E-2,-5.825585E-2,2.0255607E-2],"split_indices":[6,6,4,0,1,5,0,1,0,0,1,5,4,4,1,3,4,3,0,0,0,0,0,0,5,3,1,1,1,0,0,0,0,0,0,0,0,0,0,0,0,0,0,0,0,0,0,0,0],"split_type":[0,0,0,0,0,0,0,0,0,0,0,0,0,0,0,0,0,0,0,0,0,0,0,0,0,0,0,0,0,0,0,0,0,0,0,0,0,0,0,0,0,0,0,0,0,0,0,0,0],"sum_hessian":[2.999182E2,4.478575E1,2.5513246E2,1.6976635E1,2.7809116E1,5.3414703E1,2.0171776E2,1.2963352E1,4.0132823E0,1.7437479E1,1.0371637E1,5.0494056E0,4.83653E1,2.8970293E1,1.7274747E2,3.1928418E0,9.770511E0,1.5546255E1,1.8912237E0,3.4062781E0,6.9653597E0,1.1737938E0,3.8756118E0,3.6556225E1,1.18090725E1,1.3483479E1,1.5486814E1,1.66369E2,6.3784623E0,1.7963158E0,1.3965261E0,3.7786055E0,5.9919047E0,1.119876E0,1.4426379E1,1.8515916E0,5.113768E0,1.9783726E1,1.67725E1,9.666483E0,2.14259E0,3.9647639E0,9.518715E0,1.1302104E1,4.18471E0,8.676759E1,7.96014E1,5.3143387E0,1.0641236E0],"tree_param":{"num_deleted":"0","num_feature":"7","num_nodes":"49","size_leaf_vector":"1"}},{"base_weights":[-5.069643E-3,7.291324E-1,-3.332767E-2,9.646476E-1,-1.1283937E-2,2.5827393E-2,-4.324176E-1,-1.1208806E-3,1.2171918E0,-4.885822E-2,3.497909E-1,-1.0250099E0,-2.2276026E-1,1.5566361E-2,6.615431E-2,1.2738912E-2,-6.162337E-1,4.7204864E-1,-1.4320779E-1,-6.2228657E-2,1.950077E-2,7.003748E-1,-5.276982E-1,-2.2124262E-3,4.2145696E-2,-4.180222E-2,3.683246E-2,-9.5753756E-4,3.753651E-2,5.3733796E-2,-3.3734784E-2,6.336925E-2,-1.1514219E-2,2.1490585E-2,-4.4190697E-2],"categories":[],"categories_nodes":[],"categories_segments":[],"categories_sizes":[],"default_left":[0,0,0,0,0,0,0,0,0,0,0,0,0,0,0,0,0,0,0,0,0,0,0,0,0,0,0,0,0,0,0,0,0,0,0],"id":23,"left_children":[1,3,5,7,-1,9,11,-1,13,15,17,19,21,-1,-1,23,25,27,29,-1,-1,31,33,-1,-1,-1,-1,-1,-1,-1,-1,-1,-1,-1,-1],"loss_changes":[6.2414546E0,2.7249708E0,6.846071E0,2.3040094E0,0E0,6.1405663E0,4.422005E0,0E0,2.8744793E-1,7.226405E0,2.932798E0,3.4382172E0,8.51215E0,0E0,0E0,8.898334E0,6.637188E0,5.2604427E0,7.3360744E0,0E0,0E0,4.308728E0,7.988462E0,0E0,0E0,0E0,0E0,0E0,0E0,0E0,0E0,0E0,0E0,0E0,0E0],"parents":[2147483647,0,0,1,1,2,2,3,3,5,5,6,6,8,8,9,9,10,10,11,11,12,12,15,15,16,16,17,17,18,18,21,21,22,22],"right_children":[2,4,6,8,-1,10,12,-1,14,16,18,20,22,-1,-1,24,26,28,30,-1,-1,32,34,-1,-1,-1,-1,-1,-1,-1,-1,-1,-1,-1,-1],"split_conditions":[1.4517906E0,6.6688865E-1,8.3451927E-1,2.08E2,-1.1283937E-2,7.119328E-1,2.799358E-1,-1.1208806E-3,1E0,6.367513E-1,1.5093589E1,4.7735557E-1,3.6058053E-1,1.5566361E-2,6.615431E-2,5.920931E-1,5.5858963E1,2.1117781E-1,2.8694838E1,-6.2228657E-2,1.950077E-2,2.05E2,2.9320728E1,-2.2124262E-3,4.2145696E-2,-4.180222E-2,3.683246E-2,-9.5753756E-4,3.753651E-2,5.3733796E-2,-3.3734784E-2,6.336925E-2,-1.1514219E-2,2.1490585E-2,-4.4190697E-2],"split_indices":[3,0,1,4,0,1,0,0,2,1,3,6,0,0,0,1,5,6,5,0,0,4,5,0,0,0,0,0,0,0,0,0,0,0,0],"split_type":[0,0,0,0,0,0,0,0,0,0,0,0,0,0,0,0,0,0,0,0,0,0,0,0,0,0,0,0,0,0,0,0,0,0,0],"sum_hessian":[2.986638E2,1.0149744E1,2.8851404E2,8.133276E0,2.0164683E0,2.5208418E2,3.6429867E1,1.8426276E0,6.290648E0,2.0554713E2,4.6537056E1,8.504131E0,2.7925735E1,1.0707738E0,5.2198744E0,1.862991E2,1.924802E1,3.732372E1,9.213336E0,7.4661074E0,1.0380241E0,6.6121306E0,2.1313604E1,1.7521796E2,1.1081152E1,1.6886415E1,2.3616052E0,1.3847548E1,2.3476171E1,2.4886584E0,6.7246776E0,3.8839777E0,2.728153E0,5.7218843E0,1.5591721E1],"tree_param":{"num_deleted":"0","num_feature":"7","num_nodes":"35","size_leaf_vector":"1"}},{"base_weights":[-4.3447777E-3,3.3273557E-1,-6.423771E-2,-1.5192103E-1,7.024404E-1,-4.0180695E-1,2.6299288E-2,2.3675267E-1,-6.705203E-2,1.048028E0,1.0099324E-1,6.152584E-1,-5.18306E-1,-4.3598056E-1,1.0554774E-1,-3.803585E-1,6.890969E-1,1.2263366E0,-1.0097201E-2,-6.400762E-2,7.8678304E-1,-4.4961687E-2,5.8328867E-2,-2.753654E-1,-1.1976737E0,1.5047173E-1,-9.260398E-1,1.4572683E-1,-8.508537E-1,2.7198447E-2,-6.923956E-2,5.06593E-2,-1.7865438E-2,1.8547045E-2,6.350947E-2,-2.440099E-3,5.308503E-2,-2.1196777E-2,4.5731287E-2,-7.079583E-2,-4.4997665E-3,6.1423518E-2,-1.865883E-2,-6.653968E-2,1.1106005E-2,-2.7317991E-3,1.8168546E-2,-5.6514394E-2,1.948555E-2],"categories":[],"categories_nodes":[],"categories_segments":[],"categories_sizes":[],"default_left":[0,0,0,0,0,0,0,0,0,0,0,0,0,0,0,0,0,0,0,0,0,0,0,0,0,0,0,0,0,0,0,0,0,0,0,0,0,0,0,0,0,0,0,0,0,0,0,0,0],"id":24,"left_children":[1,3,5,7,9,11,13,15,-1,17,19,21,23,25,27,29,31,33,-1,-1,35,-1,-1,37,39,41,43,45,47,-1,-1,-1,-1,-1,-1,-1,-1,-1,-1,-1,-1,-1,-1,-1,-1,-1,-1,-1,-1],"loss_changes":[6.053529E0,8.213022E0,7.7901616E0,9.745604E0,5.2654734E0,6.7045994E0,7.4335785E0,4.790989E0,0E0,3.8817596E0,1.0987368E1,6.0555058E0,7.740567E0,8.676538E0,6.7699246E0,7.722571E0,3.6574883E0,6.9416046E-2,0E0,0E0,1.8114719E0,0E0,0E0,6.9851637E0,2.9140186E0,8.577491E0,7.8809576E0,7.294898E0,2.9083185E0,0E0,0E0,0E0,0E0,0E0,0E0,0E0,0E0,0E0,0E0,0E0,0E0,0E0,0E0,0E0,0E0,0E0,0E0,0E0,0E0],"parents":[2147483647,0,0,1,1,2,2,3,3,4,4,5,5,6,6,7,7,9,9,10,10,11,11,12,12,13,13,14,14,15,15,16,16,17,17,20,20,23,23,24,24,25,25,26,26,27,27,28,28],"right_children":[2,4,6,8,10,12,14,16,-1,18,20,22,24,26,28,30,32,34,-1,-1,36,-1,-1,38,40,42,44,46,48,-1,-1,-1,-1,-1,-1,-1,-1,-1,-1,-1,-1,-1,-1,-1,-1,-1,-1,-1,-1],"split_conditions":[7.02028E-2,3.1746246E-2,1.25E2,5.7608104E-1,4.9464303E-1,2.1993376E1,1.3882811E-1,2.23E2,-6.705203E-2,8.41776E-1,7.383057E-1,2.115525E1,9.1E1,2.72E2,9.1426015E-1,5.8E1,1.1898421E1,2.2317333E0,-1.0097201E-2,-6.400762E-2,3.4770685E-1,-4.4961687E-2,5.8328867E-2,8.9E1,5.4823982E1,4.538928E0,7.9041E-1,5.3046334E-1,9.9338305E-1,2.7198447E-2,-6.923956E-2,5.06593E-2,-1.7865438E-2,1.8547045E-2,6.350947E-2,-2.440099E-3,5.308503E-2,-2.1196777E-2,4.5731287E-2,-7.079583E-2,-4.4997665E-3,6.1423518E-2,-1.865883E-2,-6.653968E-2,1.1106005E-2,-2.7317991E-3,1.8168546E-2,-5.6514394E-2,1.948555E-2],"split_indices":[6,6,4,0,1,5,0,4,0,0,1,5,4,4,1,4,3,3,0,0,0,0,0,4,5,3,1,1,1,0,0,0,0,0,0,0,0,0,0,0,0,0,0,0,0,0,0,0,0],"split_type":[0,0,0,0,0,0,0,0,0,0,0,0,0,0,0,0,0,0,0,0,0,0,0,0,0,0,0,0,0,0,0,0,0,0,0,0,0,0,0,0,0,0,0,0,0,0,0,0,0],"sum_hessian":[2.9778818E2,4.4241173E1,2.53547E2,1.9399235E1,2.4841938E1,5.2893677E1,2.0065332E2,1.5224033E1,4.1752024E0,1.5305174E1,9.536765E0,4.9960136E0,4.7897663E1,2.87053E1,1.7194801E2,6.506573E0,8.717461E0,1.3411003E1,1.8941712E0,2.876652E0,6.660113E0,1.1649091E0,3.8311045E0,3.6316338E1,1.15813265E1,1.33829365E1,1.5322363E1,1.6582906E2,6.1189637E0,3.627138E0,2.8794353E0,6.68023E0,2.0372303E0,1.1152693E0,1.2295733E1,1.8524021E0,4.8077106E0,3.28578E1,3.4585397E0,9.442603E0,2.1387236E0,3.9354053E0,9.447531E0,1.1211112E1,4.111251E0,8.673235E1,7.90967E1,5.0666137E0,1.0523503E0],"tree_param":{"num_deleted":"0","num_feature":"7","num_nodes":"49","size_leaf_vector":"1"}},{"base_weights":[-4.457787E-3,7.542706E-1,-3.01068E-2,-8.393695E-2,1.156589E0,3.317025E-1,-9.5516086E-2,3.553966E-2,-5.479322E-2,6.596974E-2,1.2698266E-2,-2.0913109E-1,6.632048E-1,-2.436398E-2,-5.8463347E-1,1.9157492E-1,-6.470048E-2,1.0120124E0,2.6817484E-2,-1.9872703E-1,2.3153932E-1,-2.778741E-1,-6.2820755E-2,4.017306E-2,-3.3139144E-3,5.835476E-2,-9.759037E-3,-6.313125E-2,3.4945127E-2,-2.2922287E-2,7.200124E-3,-6.5076455E-2,1.4550241E-2,-5.8929514E-2,2.5408196E-3],"categories":[],"categories_nodes":[],"categories_segments":[],"categories_sizes":[],"default_left":[0,0,0,0,0,0,0,0,0,0,0,0,0,0,0,0,0,0,0,0,0,0,0,0,0,0,0,0,0,0,0,0,0,0,0],"id":25,"left_children":[1,3,5,7,9,11,13,-1,-1,-1,-1,15,17,19,21,23,-1,25,27,29,31,33,-1,-1,-1,-1,-1,-1,-1,-1,-1,-1,-1,-1,-1],"loss_changes":[5.810936E0,3.3898869E0,6.863215E0,4.0754275E0,6.444063E-1,8.102672E0,8.520815E0,0E0,0E0,0E0,0E0,7.9165964E0,6.1392546E0,9.645846E0,6.0602493E0,2.223234E0,0E0,3.5821133E0,1.0296074E1,1.1503991E1,8.369204E0,6.761429E0,0E0,0E0,0E0,0E0,0E0,0E0,0E0,0E0,0E0,0E0,0E0,0E0,0E0],"parents":[2147483647,0,0,1,1,2,2,3,3,4,4,5,5,6,6,11,11,12,12,13,13,14,14,15,15,17,17,18,18,19,19,20,20,21,21],"right_children":[2,4,6,8,10,12,14,-1,-1,-1,-1,16,18,20,22,24,-1,26,28,30,32,34,-1,-1,-1,-1,-1,-1,-1,-1,-1,-1,-1,-1,-1],"split_conditions":[1.3979961E0,2.499434E-1,7.02028E-2,1.8948874E-1,3.8E2,2.853709E-2,8.289793E-1,3.553966E-2,-5.479322E-2,6.596974E-2,1.2698266E-2,5.7608104E-1,4.9464303E-1,5.3046334E-1,4.422465E1,1.6339365E-1,-6.470048E-2,8.41776E-1,7.383057E-1,1.2505582E1,5E1,2.4539478E-1,-6.2820755E-2,4.017306E-2,-3.3139144E-3,5.835476E-2,-9.759037E-3,-6.313125E-2,3.4945127E-2,-2.2922287E-2,7.200124E-3,-6.5076455E-2,1.4550241E-2,-5.8929514E-2,2.5408196E-3],"split_indices":[3,6,6,0,4,6,1,0,0,0,0,0,1,1,5,1,0,0,1,3,4,6,0,0,0,0,0,0,0,0,0,0,0,0,0],"split_type":[0,0,0,0,0,0,0,0,0,0,0,0,0,0,0,0,0,0,0,0,0,0,0,0,0,0,0,0,0,0,0,0,0,0,0],"sum_hessian":[2.9643262E2,8.76438E0,2.8766824E2,3.099051E0,5.6653295E0,4.3420113E1,2.4424812E2,1.9024906E0,1.1965604E0,4.408447E0,1.2568825E0,1.6640652E1,2.677946E1,2.1414603E2,3.0102097E1,1.275349E1,3.8871608E0,1.691694E1,9.86252E0,1.2749742E2,8.66486E1,2.1635979E1,8.466118E0,3.1537266E0,9.599764E0,1.50205345E1,1.8964068E0,3.0781686E0,6.784352E0,7.2340515E1,5.515691E1,2.4555438E0,8.4193054E1,5.093222E0,1.6542757E1],"tree_param":{"num_deleted":"0","num_feature":"7","num_nodes":"35","size_leaf_vector":"1"}},{"base_weights":[-4.7094626E-3,6.862345E-1,-3.0981679E-2,9.1644543E-1,-1.1515505E-2,3.0423464E-2,-3.7914133E-1,-5.9994624E-4,1.1569072E0,-1.1957101E-2,7.5867456E-1,-4.8171362E-1,6.9422185E-1,1.4576526E-2,6.297203E-2,-5.180725E-2,9.93046E-3,8.7551695E-1,-3.0560303E-3,-9.6678007E-1,-1.6117857E-1,5.0260313E-2,3.1548706E-3,-6.0696313E-3,8.662139E-3,6.157982E-2,1.8363971E-2,1.5332192E-2,-6.15696E-2,-5.5178937E-2,3.953486E-3],"categories":[],"categories_nodes":[],"categories_segments":[],"categories_sizes":[],"default_left":[0,0,0,0,0,0,0,0,0,0,0,0,0,0,0,0,0,0,0,0,0,0,0,0,0,0,0,0,0,0,0],"id":26,"left_children":[1,3,5,7,-1,9,11,-1,13,15,17,19,21,-1,-1,-1,23,25,-1,27,29,-1,-1,-1,-1,-1,-1,-1,-1,-1,-1],"loss_changes":[5.3999753E0,2.5103374E0,6.13459E0,2.0031624E0,0E0,7.5519457E0,5.070229E0,0E0,2.617178E-1,5.209622E0,1.3424015E0,6.040571E0,7.533817E-1,0E0,0E0,0E0,4.9124784E0,1.6908321E0,0E0,5.653367E0,5.7919593E0,0E0,0E0,0E0,0E0,0E0,0E0,0E0,0E0,0E0,0E0],"parents":[2147483647,0,0,1,1,2,2,3,3,5,5,6,6,8,8,9,9,10,10,11,11,12,12,16,16,17,17,19,19,20,20],"right_children":[2,4,6,8,-1,10,12,-1,14,16,18,20,22,-1,-1,-1,24,26,-1,28,30,-1,-1,-1,-1,-1,-1,-1,-1,-1,-1],"split_conditions":[1.4517906E0,6.6688865E-1,8.129325E-1,2.08E2,-1.1515505E-2,7.9041E-1,4.8120365E-1,-5.9994624E-4,1E0,2.541582E-2,4.516281E-1,8.7712485E-1,8.50027E-1,1.4576526E-2,6.297203E-2,-5.180725E-2,4.4932922E1,3.997734E-1,-3.0560303E-3,1.0379308E-1,2.7114236E-1,5.0260313E-2,3.1548706E-3,-6.0696313E-3,8.662139E-3,6.157982E-2,1.8363971E-2,1.5332192E-2,-6.15696E-2,-5.5178937E-2,3.953486E-3],"split_indices":[3,0,1,4,0,1,6,0,2,1,6,1,1,0,0,0,5,0,0,6,0,0,0,0,0,0,0,0,0,0,0],"split_type":[0,0,0,0,0,0,0,0,0,0,0,0,0,0,0,0,0,0,0,0,0,0,0,0,0,0,0,0,0,0,0],"sum_hessian":[2.95305E2,9.897092E0,2.854079E2,7.910339E0,1.986753E0,2.4339313E2,4.2014786E1,1.8227265E0,6.087612E0,2.3093732E2,1.2455812E1,3.885313E1,3.1616561E0,1.052006E0,5.0356064E0,3.8624332E0,2.2707487E2,1.0842501E1,1.6133118E0,1.4656806E1,2.4196323E1,1.7209442E0,1.440712E0,1.2600673E2,1.01068146E2,5.538717E0,5.303784E0,2.494307E0,1.2162498E1,4.1853485E0,2.0010975E1],"tree_param":{"num_deleted":"0","num_feature":"7","num_nodes":"31","size_leaf_vector":"1"}},{"base_weights":[-4.3322966E-3,1.0974731E-2,-5.6273848E-2,-1.1764363E-2,1.0348535E0,1.7117571E-2,-7.012947E-1,-4.7108738E-4,1.3470087E0,7.46464E-2,-3.074743E-1,7.656631E-2,-7.183462E-2,2.120846E-2,7.50141E-2,8.738761E-4,2.2888208E-2,7.711743E-3,-2.6461113E-2,-5.4559063E-2,3.813979E-2],"categories":[],"categories_nodes":[],"categories_segments":[],"categories_sizes":[],"default_left":[0,0,0,0,0,0,0,0,0,0,0,0,0,0,0,0,0,0,0,0,0],"id":27,"left_children":[1,3,-1,5,7,9,11,-1,13,15,17,19,-1,-1,-1,-1,-1,-1,-1,-1,-1],"loss_changes":[5.0837893E0,6.822748E0,0E0,5.7307405E0,2.0880828E0,5.1878133E0,6.7274804E0,0E0,5.791378E-2,5.1555605E0,4.364951E0,6.0981555E0,0E0,0E0,0E0,0E0,0E0,0E0,0E0,0E0,0E0],"parents":[2147483647,0,0,1,1,3,3,4,4,5,5,6,6,8,8,9,9,10,10,11,11],"right_children":[2,4,-1,6,8,10,12,-1,14,16,18,20,-1,-1,-1,-1,-1,-1,-1,-1,-1],"split_conditions":[9.8918265E-1,9.736903E-1,-5.6273848E-2,9.309675E-1,4.049151E1,8.129325E-1,3.4050182E-1,-4.7108738E-4,9.864237E0,7.443843E-1,2.9578535E1,1.88E2,-7.183462E-2,2.120846E-2,7.50141E-2,8.738761E-4,2.2888208E-2,7.711743E-3,-2.6461113E-2,-5.4559063E-2,3.813979E-2],"split_indices":[0,0,0,0,5,1,1,0,3,1,5,4,0,0,0,0,0,0,0,0,0],"split_type":[0,0,0,0,0,0,0,0,0,0,0,0,0,0,0,0,0,0,0,0,0],"sum_hessian":[2.945143E2,2.9152435E2,2.9899807E0,2.8615765E2,5.3667016E0,2.755894E2,1.0568268E1,1.4582229E0,3.9084787E0,2.347531E2,4.0836285E1,5.5712285E0,4.997039E0,1.0932938E0,2.815185E0,2.051815E2,2.957159E1,1.3348132E1,2.7488152E1,1.8437065E0,3.727522E0],"tree_param":{"num_deleted":"0","num_feature":"7","num_nodes":"21","size_leaf_vector":"1"}},{"base_weights":[-4.289914E-3,7.142485E-1,-2.8265523E-2,-9.66644E-2,1.1077665E0,3.1547E-1,-8.99834E-2,3.3576045E-2,-5.286754E-2,6.334423E-2,1.1692205E-2,-1.4999412E-1,6.7886233E-1,-2.6174972E-2,-5.407291E-1,2.1391144E-1,-6.37335E-2,9.833428E-1,1.3145442E-1,-1.882013E-1,2.1254957E-1,-2.4565952E-1,-6.040289E-2,-1.8838998E-2,3.2572117E-2,5.790543E-2,-9.690536E-3,-5.854043E-2,3.670424E-2,-5.2092215E-3,-6.291801E-2,-6.31866E-2,1.3493033E-2,-5.7085652E-2,3.5652982E-3],"categories":[],"categories_nodes":[],"categories_segments":[],"categories_sizes":[],"default_left":[0,0,0,0,0,0,0,0,0,0,0,0,0,0,0,0,0,0,0,0,0,0,0,0,0,0,0,0,0,0,0,0,0,0,0],"id":28,"left_children":[1,3,5,7,9,11,13,-1,-1,-1,-1,15,17,19,21,23,-1,25,27,29,31,33,-1,-1,-1,-1,-1,-1,-1,-1,-1,-1,-1,-1,-1],"loss_changes":[5.102209E0,3.1588578E0,6.104956E0,3.6947095E0,6.102686E-1,7.514246E0,6.992417E0,0E0,0E0,0E0,0E0,8.471282E0,4.0027065E0,8.334927E0,5.6417065E0,4.378305E0,0E0,3.469923E0,8.71901E0,1.140254E1,7.7165833E0,6.377315E0,0E0,0E0,0E0,0E0,0E0,0E0,0E0,0E0,0E0,0E0,0E0,0E0,0E0],"parents":[2147483647,0,0,1,1,2,2,3,3,4,4,5,5,6,6,11,11,12,12,13,13,14,14,15,15,17,17,18,18,19,19,20,20,21,21],"right_children":[2,4,6,8,10,12,14,-1,-1,-1,-1,16,18,20,22,24,-1,26,28,30,32,34,-1,-1,-1,-1,-1,-1,-1,-1,-1,-1,-1,-1,-1],"split_conditions":[1.3979961E0,2.499434E-1,7.02028E-2,1.8948874E-1,3.8E2,3.1746246E-2,8.289793E-1,3.3576045E-2,-5.286754E-2,6.334423E-2,1.1692205E-2,5.7608104E-1,4.9464303E-1,5.3046334E-1,4.422465E1,2.23E2,-6.37335E-2,8.41776E-1,7.383057E-1,5.6632732E1,5E1,2.4539478E-1,-6.040289E-2,-1.8838998E-2,3.2572117E-2,5.790543E-2,-9.690536E-3,-5.854043E-2,3.670424E-2,-5.2092215E-3,-6.291801E-2,-6.31866E-2,1.3493033E-2,-5.7085652E-2,3.5652982E-3],"split_indices":[3,6,6,0,4,6,1,0,0,0,0,0,1,1,5,4,0,0,1,5,4,6,0,0,0,0,0,0,0,0,0,0,0,0,0],"split_type":[0,0,0,0,0,0,0,0,0,0,0,0,0,0,0,0,0,0,0,0,0,0,0,0,0,0,0,0,0,0,0,0,0,0,0],"sum_hessian":[2.9399643E2,8.563435E0,2.8543298E2,3.044358E0,5.5190763E0,4.282259E1,2.4261038E2,1.8589227E0,1.1854353E0,4.288585E0,1.2304913E0,1.9032005E1,2.3790586E1,2.1345181E2,2.9158579E1,1.4991186E1,4.0408187E0,1.477567E1,9.014917E0,1.2727785E2,8.617396E1,2.1167269E1,7.991309E0,6.4381585E0,8.553027E0,1.2879671E1,1.8959988E0,2.553678E0,6.4612393E0,1.1903028E2,8.247568E0,2.4336982E0,8.3740265E1,4.851157E0,1.6316113E1],"tree_param":{"num_deleted":"0","num_feature":"7","num_nodes":"35","size_leaf_vector":"1"}},{"base_weights":[-4.7818082E-3,-5.054565E-2,1.1576304E-2,6.564931E-2,-2.905882E-1,2.9199317E-2,7.1242553E-1,-1.438724E-1,-9.1397685E-1,4.6404805E-2,-5.4529525E-2,8.301508E-1,-4.095685E-3,5.006242E-2,-6.971265E-1,2.9140476E-2,-6.0587015E-2,1.3734447E-3,5.659752E-2,5.933964E-2,1.6646279E-2,-1.1344526E-2,2.6774509E-2,9.551401E-3,-4.7553163E-2],"categories":[],"categories_nodes":[],"categories_segments":[],"categories_sizes":[],"default_left":[0,0,0,0,0,0,0,0,0,0,0,0,0,0,0,0,0,0,0,0,0,0,0,0,0],"id":29,"left_children":[1,-1,3,5,7,9,11,13,15,17,-1,19,-1,21,23,-1,-1,-1,-1,-1,-1,-1,-1,-1,-1],"loss_changes":[4.8467884E0,0E0,4.758429E0,5.798726E0,3.9122665E0,4.572946E0,1.2955332E0,4.002314E0,4.3770695E0,4.74057E0,0E0,1.6481395E0,0E0,3.9278126E0,2.3613348E0,0E0,0E0,0E0,0E0,0E0,0E0,0E0,0E0,0E0,0E0],"parents":[2147483647,0,0,2,2,3,3,4,4,5,5,6,6,7,7,8,8,9,9,11,11,13,13,14,14],"right_children":[2,-1,4,6,8,10,12,14,16,18,-1,20,-1,22,24,-1,-1,-1,-1,-1,-1,-1,-1,-1,-1],"split_conditions":[2.541582E-2,-5.054565E-2,8.129325E-1,7.9041E-1,4.9520355E1,9.8541224E-1,4.516281E-1,1.49535265E1,1.4E1,9.736903E-1,-5.4529525E-2,3.997734E-1,-4.095685E-3,4.288882E1,6.63095E-2,2.9140476E-2,-6.0587015E-2,1.3734447E-3,5.659752E-2,5.933964E-2,1.6646279E-2,-1.1344526E-2,2.6774509E-2,9.551401E-3,-4.7553163E-2],"split_indices":[1,0,1,1,5,0,6,3,4,0,0,0,0,5,6,0,0,0,0,0,0,0,0,0,0],"split_type":[0,0,0,0,0,0,0,0,0,0,0,0,0,0,0,0,0,0,0,0,0,0,0,0,0],"sum_hessian":[2.9277603E2,3.7112446E0,2.890648E2,2.4585179E2,4.3212986E1,2.3372504E2,1.21267605E1,3.597661E1,7.236378E0,2.3113226E2,2.592771E0,1.0522228E1,1.6045325E0,2.7312233E1,8.664374E0,1.041867E0,6.194511E0,2.281773E2,2.9549487E0,5.319737E0,5.202491E0,1.7729532E1,9.5827E0,1.9815507E0,6.682824E0],"tree_param":{"num_deleted":"0","num_feature":"7","num_nodes":"25","size_leaf_vector":"1"}}]},"name":"gbtree"},"learner_model_param":{"base_score":"[5E-1]","boost_from_average":"1","num_class":"0","num_feature":"7","num_target":"1"},"objective":{"name":"binary:logistic","reg_loss_param":{"scale_pos_weight":"3.76190472"}}},"version":[3,1,3]}